{"learner":{"attributes":{"scikit_learn":"{\"_estimator_type\": \"classifier\"}"},"feature_names":["h0","h1","h2","h3","h4","h5","h6","h7","h8","h9","h10","h11","h12","h13","h14","h15","h16","h17","h18","h19","h20","h21","h22","h23","h24","h25","h26","h27","h28","h29","h30","h31","h32","h33","h34","h35","h36","h37","h38","h39","h40","h41","h42","h43","h44","h45","h46","h47","h48","h49","h50","h51","h52","h53","h54","h55","h56","h57","h58","h59","h60","h61","h62","h63","h64","h65","h66","h67","h68","h69","h70","h71","h72","h73","h74","h75","h76","h77","h78","h79","h80","h81","h82","h83","h84","h85","h86","h87","h88","h89","h90","h91","h92","h93","h94","h95","h96","h97","h98","h99","h100","h101","h102","h103","h104","h105","h106","h107","h108","h109","h110","h111","h112","h113","h114","h115","h116","h117","h118","h119","h120","h121","h122","h123","h124","h125","h126","h127","h128","h129","h130","h131","h132","h133","h134","h135","h136","h137","h138","h139","h140","h141","h142","h143","h144","h145","h146","h147","h148","h149","h150","h151","h152","h153","h154","h155","h156","h157","h158","h159","h160","h161","h162","h163","h164","h165","h166","h167","h168","h169","h170","h171","h172","h173","h174","h175","h176","h177","h178","h179","h180","h181","h182","h183","h184","h185","h186","h187","h188","h189","h190","h191","h192","h193","h194","h195","h196","h197","h198","h199","h200","h201","h202","h203","h204","h205","h206","h207","h208","h209","h210","h211","h212","h213","h214","h215","h216","h217","h218","h219","h220","h221","h222","h223","h224","h225","h226","h227","h228","h229","h230","h231","h232","h233","h234","h235","h236","h237","h238","h239","h240","h241","h242","h243","h244","h245","h246","h247","h248","h249","h250","h251","h252","h253","h254","h255","entropy","mean","std","autocorr","chi_stat","zero_seq"],"feature_types":["float","float","float","float","float","float","float","float","float","float","float","float","float","float","float","float","float","float","float","float","float","float","float","float","float","float","float","float","float","float","float","float","float","float","float","float","float","float","float","float","float","float","float","float","float","float","float","float","float","float","float","float","float","float","float","float","float","float","float","float","float","float","float","float","float","float","float","float","float","float","float","float","float","float","float","float","float","float","float","float","float","float","float","float","float","float","float","float","float","float","float","float","float","float","float","float","float","float","float","float","float","float","float","float","float","float","float","float","float","float","float","float","float","float","float","float","float","float","float","float","float","float","float","float","float","float","float","float","float","float","float","float","float","float","float","float","float","float","float","float","float","float","float","float","float","float","float","float","float","float","float","float","float","float","float","float","float","float","float","float","float","float","float","float","float","float","float","float","float","float","float","float","float","float","float","float","float","float","float","float","float","float","float","float","float","float","float","float","float","float","float","float","float","float","float","float","float","float","float","float","float","float","float","float","float","float","float","float","float","float","float","float","float","float","float","float","float","float","float","float","float","float","float","float","float","float","float","float","float","float","float","float","float","float","float","float","float","float","float","float","float","float","float","float","float","float","float","float","float","float","float","float","float","float","float","float","float","float","float","float","float","float"],"gradient_booster":{"model":{"cats":{"enc":[],"feature_segments":[],"sorted_idx":[]},"gbtree_model_param":{"num_parallel_tree":"1","num_trees":"300"},"iteration_indptr":[0,1,2,3,4,5,6,7,8,9,10,11,12,13,14,15,16,17,18,19,20,21,22,23,24,25,26,27,28,29,30,31,32,33,34,35,36,37,38,39,40,41,42,43,44,45,46,47,48,49,50,51,52,53,54,55,56,57,58,59,60,61,62,63,64,65,66,67,68,69,70,71,72,73,74,75,76,77,78,79,80,81,82,83,84,85,86,87,88,89,90,91,92,93,94,95,96,97,98,99,100,101,102,103,104,105,106,107,108,109,110,111,112,113,114,115,116,117,118,119,120,121,122,123,124,125,126,127,128,129,130,131,132,133,134,135,136,137,138,139,140,141,142,143,144,145,146,147,148,149,150,151,152,153,154,155,156,157,158,159,160,161,162,163,164,165,166,167,168,169,170,171,172,173,174,175,176,177,178,179,180,181,182,183,184,185,186,187,188,189,190,191,192,193,194,195,196,197,198,199,200,201,202,203,204,205,206,207,208,209,210,211,212,213,214,215,216,217,218,219,220,221,222,223,224,225,226,227,228,229,230,231,232,233,234,235,236,237,238,239,240,241,242,243,244,245,246,247,248,249,250,251,252,253,254,255,256,257,258,259,260,261,262,263,264,265,266,267,268,269,270,271,272,273,274,275,276,277,278,279,280,281,282,283,284,285,286,287,288,289,290,291,292,293,294,295,296,297,298,299,300],"tree_info":[0,0,0,0,0,0,0,0,0,0,0,0,0,0,0,0,0,0,0,0,0,0,0,0,0,0,0,0,0,0,0,0,0,0,0,0,0,0,0,0,0,0,0,0,0,0,0,0,0,0,0,0,0,0,0,0,0,0,0,0,0,0,0,0,0,0,0,0,0,0,0,0,0,0,0,0,0,0,0,0,0,0,0,0,0,0,0,0,0,0,0,0,0,0,0,0,0,0,0,0,0,0,0,0,0,0,0,0,0,0,0,0,0,0,0,0,0,0,0,0,0,0,0,0,0,0,0,0,0,0,0,0,0,0,0,0,0,0,0,0,0,0,0,0,0,0,0,0,0,0,0,0,0,0,0,0,0,0,0,0,0,0,0,0,0,0,0,0,0,0,0,0,0,0,0,0,0,0,0,0,0,0,0,0,0,0,0,0,0,0,0,0,0,0,0,0,0,0,0,0,0,0,0,0,0,0,0,0,0,0,0,0,0,0,0,0,0,0,0,0,0,0,0,0,0,0,0,0,0,0,0,0,0,0,0,0,0,0,0,0,0,0,0,0,0,0,0,0,0,0,0,0,0,0,0,0,0,0,0,0,0,0,0,0,0,0,0,0,0,0,0,0,0,0,0,0,0,0,0,0,0,0,0,0,0,0,0,0,0,0,0,0,0,0,0,0,0,0,0,0],"trees":[{"base_weights":[-0E0,-1.9337442E0,9.2859787E-1,-1.9724303E0,-8.859416E-1,1.2368299E0,-2.56043E-1,-9.963768E-2,-1.6576862E0,-1.2340425E0,1.3846154E0,1.1160128E0,1.8449613E0,-4.862926E-1,1.3251318E0,-1.8324958E0,1.2631578E0,-1.432258E0,8.260869E-2,-5.555556E-2,1.7446809E0,1.1651255E0,1.590909E-1,1.6311475E0,1.9528403E0,1.1655492E-1,-1.0792683E0,-1.1157895E0,1.7991632E0,-1.9111111E0,7.5E-2,-5.555556E-2,8.7878786E-2,-1.5231788E0,6.666667E-2,9.0697676E-2,2.5E-2,1.2353197E0,7.920701E-1,-5.3846157E-1,4.48E-1,1.6779108E0,8.196721E-1,1.1111111E-2,1.9570124E0,-3.4450868E-1,4.8608536E-1,7.906977E-1,-1.1622481E0,-1.482353E0,7.1428575E-2,1.8614719E0,-0E0,-9.71831E-2,-3.3333335E-2,-9.052632E-2,-5E-2,2.5730995E-2,6.285175E-2,-7.073171E-2,4.1651033E-2,-6.0000002E-2,-8.029197E-3,2.9438203E-2,-3.220339E-2,-0E0,8.463227E-2,6.52174E-2,-2.6315792E-2,1.1111111E-2,9.806035E-2,-2.6595745E-2,4.3589745E-2,-6.363636E-2,3.3062056E-2,-6.25E-3,6.2068965E-2,-6.224667E-2,-1.2883435E-2,-2.3076924E-2,-9.047619E-2,9.3886465E-2,-0E0,-6.363636E-2,5.3846158E-2],"categories":[],"categories_nodes":[],"categories_segments":[],"categories_sizes":[],"default_left":[0,0,0,0,0,0,0,0,0,0,0,0,0,0,0,0,0,0,0,0,0,0,0,0,0,0,0,0,0,0,0,0,0,0,0,0,0,0,0,0,0,0,0,0,0,0,0,0,0,0,0,0,0,0,0,0,0,0,0,0,0,0,0,0,0,0,0,0,0,0,0,0,0,0,0,0,0,0,0,0,0,0,0,0,0],"id":0,"left_children":[1,3,5,7,9,11,13,-1,15,17,19,21,23,25,27,29,31,33,-1,-1,35,37,39,41,43,45,47,49,51,53,-1,-1,-1,55,-1,-1,-1,57,59,61,63,65,67,-1,69,71,73,75,77,79,-1,81,83,-1,-1,-1,-1,-1,-1,-1,-1,-1,-1,-1,-1,-1,-1,-1,-1,-1,-1,-1,-1,-1,-1,-1,-1,-1,-1,-1,-1,-1,-1,-1,-1],"loss_changes":[1.4368957E4,1.034834E2,1.9742866E3,1.2706055E1,7.620226E1,3.1313818E2,4.0730493E2,0E0,8.2860504E1,4.9420982E1,1.3620659E1,1.6813477E2,1.3179932E1,3.4893097E2,1.6660117E2,4.1967987E1,1.3104732E1,2.1518234E1,0E0,0E0,1.0613632E-1,8.82251E1,3.571038E1,7.883789E0,2.9333496E0,8.275773E1,7.726233E1,2.4268555E1,1.3396362E1,4.628418E0,0E0,0E0,0E0,9.539703E0,0E0,0E0,0E0,4.4194824E1,5.017929E1,1.2806288E1,1.959469E1,5.680237E0,1.0635106E1,0E0,2.949585E0,4.9756363E1,8.38654E1,9.027967E0,3.494525E1,6.2619286E0,0E0,3.4953308E0,8.223776E0,0E0,0E0,0E0,0E0,0E0,0E0,0E0,0E0,0E0,0E0,0E0,0E0,0E0,0E0,0E0,0E0,0E0,0E0,0E0,0E0,0E0,0E0,0E0,0E0,0E0,0E0,0E0,0E0,0E0,0E0,0E0,0E0],"parents":[2147483647,0,0,1,1,2,2,3,3,4,4,5,5,6,6,8,8,9,9,10,10,11,11,12,12,13,13,14,14,15,15,16,16,17,17,20,20,21,21,22,22,23,23,24,24,25,25,26,26,27,27,28,28,29,29,33,33,37,37,38,38,39,39,40,40,41,41,42,42,44,44,45,45,46,46,47,47,48,48,49,49,51,51,52,52],"right_children":[2,4,6,8,10,12,14,-1,16,18,20,22,24,26,28,30,32,34,-1,-1,36,38,40,42,44,46,48,50,52,54,-1,-1,-1,56,-1,-1,-1,58,60,62,64,66,68,-1,70,72,74,76,78,80,-1,82,84,-1,-1,-1,-1,-1,-1,-1,-1,-1,-1,-1,-1,-1,-1,-1,-1,-1,-1,-1,-1,-1,-1,-1,-1,-1,-1,-1,-1,-1,-1,-1,-1],"split_conditions":[7.9406133E0,7.9374857E0,3E0,7.932319E0,2.9E1,5.859375E-3,1.4E1,-9.963768E-2,2.9E1,7.3242188E-3,1.23204346E2,1.2958057E2,6.591797E-3,7E0,1.2463721E2,8.300781E-3,1.2212915E2,7.8125E-3,8.260869E-2,-5.555556E-2,5.3710938E-3,1E0,7.950702E0,5.6152344E-3,2.1972656E-3,4E0,6.1035156E-3,2.7E1,6.1035156E-3,5.3710938E-3,7.5E-2,-5.555556E-2,8.7878786E-2,3.90625E-3,6.666667E-2,9.0697676E-2,2.5E-2,7.945647E0,1.24352295E2,3.4179688E-3,5.6152344E-3,1.953125E-3,4.638672E-3,1.1111111E-2,1.2487573E2,5.6152344E-3,1.24986084E2,3.6621094E-3,1.2E1,3.90625E-3,7.1428575E-2,6.3476562E-3,1.2559912E2,-9.71831E-2,-3.3333335E-2,-9.052632E-2,-5E-2,2.5730995E-2,6.285175E-2,-7.073171E-2,4.1651033E-2,-6.0000002E-2,-8.029197E-3,2.9438203E-2,-3.220339E-2,-0E0,8.463227E-2,6.52174E-2,-2.6315792E-2,1.1111111E-2,9.806035E-2,-2.6595745E-2,4.3589745E-2,-6.363636E-2,3.3062056E-2,-6.25E-3,6.2068965E-2,-6.224667E-2,-1.2883435E-2,-2.3076924E-2,-9.047619E-2,9.3886465E-2,-0E0,-6.363636E-2,5.3846158E-2],"split_indices":[256,256,261,256,261,208,261,0,261,32,257,257,208,261,257,32,257,208,0,0,32,261,256,52,32,261,0,261,64,47,0,0,0,249,0,0,0,256,257,64,247,8,86,0,257,72,257,72,261,26,0,84,257,0,0,0,0,0,0,0,0,0,0,0,0,0,0,0,0,0,0,0,0,0,0,0,0,0,0,0,0,0,0,0,0],"split_type":[0,0,0,0,0,0,0,0,0,0,0,0,0,0,0,0,0,0,0,0,0,0,0,0,0,0,0,0,0,0,0,0,0,0,0,0,0,0,0,0,0,0,0,0,0,0,0,0,0,0,0,0,0,0,0,0,0,0,0,0,0,0,0,0,0,0,0,0,0,0,0,0,0,0,0,0,0,0,0,0,0,0,0,0,0],"sum_hessian":[8E3,2.595E3,5.405E3,2.50175E3,9.325E1,4.289E3,1.116E3,2.345E3,1.5675E2,8.125E1,1.2E1,3.5805E3,7.085E2,9.7475E2,1.4125E2,1.4825E2,8.5E0,7.65E1,4.75E0,1.25E0,1.075E1,3.4055E3,1.75E2,2.43E2,4.655E2,4.8375E2,4.91E2,2.275E1,1.185E2,1.4525E2,3E0,1.25E0,7.25E0,7.45E1,2E0,9.75E0,1E0,2.86425E3,5.4125E2,5.1E1,1.24E2,2.2875E2,1.425E1,1.25E0,4.6425E2,2.1525E2,2.685E2,2.05E1,4.705E2,2.025E1,2.5E0,1.145E2,4E0,1.41E2,4.25E0,4.65E1,2.8E1,8.45E1,2.77975E3,9.25E0,5.32E2,1.775E1,3.325E1,1.1025E2,1.375E1,2E0,2.2675E2,1.05E1,3.75E0,1.25E0,4.63E2,1.87E2,2.825E1,2.375E1,2.4475E2,7E0,1.35E1,4.3075E2,3.975E1,5.5E0,1.475E1,1.135E2,1E0,1.75E0,2.25E0],"tree_param":{"num_deleted":"0","num_feature":"262","num_nodes":"85","size_leaf_vector":"1"}},{"base_weights":[1.1143081E-5,-1.8416314E0,8.831192E-1,-1.8785651E0,-8.422257E-1,1.1763215E0,-2.4342047E-1,-9.489707E-2,-1.5785437E0,-1.1893417E0,1.2327621E0,1.0497109E0,1.7052219E0,-4.6228975E-1,1.2617668E0,-1.7452643E0,1.2053398E0,-1.3824068E0,7.9310186E-2,-4.8507098E-2,8.4052265E-2,1.0968312E0,1.2241514E-1,1.4586221E0,1.8379083E0,1.1073086E-1,-1.0262617E0,-1.3328483E0,1.6666797E0,-1.8206742E0,7.226496E-2,-5.40359E-2,8.416255E-2,-1.4715127E0,6.449301E-2,1.1633172E0,7.460928E-1,-5.670073E-1,4.0778178E-1,1.4735036E0,-5.6277405E-2,1.584514E-2,1.8430349E0,-2.7121076E-1,5.169782E-1,4.1425994E-1,-1.1248785E0,-1.6011932E0,5.7902325E-2,1.7221841E0,9.003566E-2,-9.257866E-2,-3.199145E-2,-8.393893E-2,-4.415471E-2,2.549223E-2,5.929898E-2,-5.487002E-2,3.950865E-2,-3.7297428E-2,3.4162417E-2,2.765593E-2,-3.5353582E-2,-1.5923833E-2,7.450131E-2,1.9303067E-2,9.232151E-2,-3.160609E-2,3.2113555E-3,5.333458E-3,5.390658E-2,3.0105373E-2,-5.8674216E-2,-7.559289E-3,-5.970803E-2,-1.3462858E-2,-8.9791834E-2,1.6215976E-2,8.98341E-2,-4.8475817E-2,5.200879E-2],"categories":[],"categories_nodes":[],"categories_segments":[],"categories_sizes":[],"default_left":[0,0,0,0,0,0,0,0,0,0,0,0,0,0,0,0,0,0,0,0,0,0,0,0,0,0,0,0,0,0,0,0,0,0,0,0,0,0,0,0,0,0,0,0,0,0,0,0,0,0,0,0,0,0,0,0,0,0,0,0,0,0,0,0,0,0,0,0,0,0,0,0,0,0,0,0,0,0,0,0,0],"id":1,"left_children":[1,3,5,7,9,11,13,-1,15,17,19,21,23,25,27,29,31,33,-1,-1,-1,35,37,39,41,43,45,47,49,51,-1,-1,-1,53,-1,55,57,59,61,63,-1,-1,65,67,69,71,73,75,-1,77,79,-1,-1,-1,-1,-1,-1,-1,-1,-1,-1,-1,-1,-1,-1,-1,-1,-1,-1,-1,-1,-1,-1,-1,-1,-1,-1,-1,-1,-1,-1],"loss_changes":[1.2995121E4,9.400879E1,1.7841162E3,1.1516602E1,6.924702E1,2.8518115E2,3.682849E2,0E0,7.5156586E1,4.566635E1,1.5434002E1,1.5106201E2,2.4350098E1,3.152605E2,1.5136658E2,3.8459747E1,1.2181852E1,2.0086761E1,0E0,0E0,0E0,7.5918945E1,3.3373226E1,1.2958801E1,3.5740967E0,7.5334045E1,7.0298035E1,1.5035152E1,1.0630035E1,4.1392517E0,0E0,0E0,0E0,7.5898438E0,0E0,4.0362793E1,4.3733673E1,1.1636219E1,1.9789839E1,9.137878E0,0E0,0E0,1.9152832E0,3.0358988E1,5.403394E1,1.0318389E1,3.0873718E1,4.2404175E0,0E0,1.1809448E1,6.2900176E0,0E0,0E0,0E0,0E0,0E0,0E0,0E0,0E0,0E0,0E0,0E0,0E0,0E0,0E0,0E0,0E0,0E0,0E0,0E0,0E0,0E0,0E0,0E0,0E0,0E0,0E0,0E0,0E0,0E0,0E0],"parents":[2147483647,0,0,1,1,2,2,3,3,4,4,5,5,6,6,8,8,9,9,10,10,11,11,12,12,13,13,14,14,15,15,16,16,17,17,21,21,22,22,23,23,24,24,25,25,26,26,27,27,28,28,29,29,33,33,35,35,36,36,37,37,38,38,39,39,42,42,43,43,44,44,45,45,46,46,47,47,49,49,50,50],"right_children":[2,4,6,8,10,12,14,-1,16,18,20,22,24,26,28,30,32,34,-1,-1,-1,36,38,40,42,44,46,48,50,52,-1,-1,-1,54,-1,56,58,60,62,64,-1,-1,66,68,70,72,74,76,-1,78,80,-1,-1,-1,-1,-1,-1,-1,-1,-1,-1,-1,-1,-1,-1,-1,-1,-1,-1,-1,-1,-1,-1,-1,-1,-1,-1,-1,-1,-1,-1],"split_conditions":[7.9406133E0,7.9374857E0,3E0,7.932319E0,2.7E1,5.6152344E-3,1.4E1,-9.489707E-2,2.9E1,7.3242188E-3,1.2352637E2,1.2958057E2,6.3476562E-3,7E0,1.24352295E2,8.300781E-3,1.2212915E2,7.8125E-3,7.9310186E-2,-4.8507098E-2,8.4052265E-2,1E0,7.950702E0,1.3114502E2,2.1972656E-3,4.3945312E-3,6.3476562E-3,2.7E1,6.1035156E-3,5.3710938E-3,7.226496E-2,-5.40359E-2,8.416255E-2,4.1503906E-3,6.449301E-2,7.945944E0,1.24506836E2,1E0,5.6152344E-3,1.2463721E2,-5.6277405E-2,1.584514E-2,1.2487573E2,4E0,4.3945312E-3,5.3710938E-3,2.9296875E-3,3.6621094E-3,5.7902325E-2,1.24770996E2,1.2559912E2,-9.257866E-2,-3.199145E-2,-8.393893E-2,-4.415471E-2,2.549223E-2,5.929898E-2,-5.487002E-2,3.950865E-2,-3.7297428E-2,3.4162417E-2,2.765593E-2,-3.5353582E-2,-1.5923833E-2,7.450131E-2,1.9303067E-2,9.232151E-2,-3.160609E-2,3.2113555E-3,5.333458E-3,5.390658E-2,3.0105373E-2,-5.8674216E-2,-7.559289E-3,-5.970803E-2,-1.3462858E-2,-8.9791834E-2,1.6215976E-2,8.98341E-2,-4.8475817E-2,5.200879E-2],"split_indices":[256,256,261,256,261,208,261,0,261,32,257,257,208,261,257,32,257,208,0,0,0,261,256,257,32,72,0,261,64,47,0,0,0,249,0,256,257,261,247,257,0,0,257,261,139,101,4,26,0,257,257,0,0,0,0,0,0,0,0,0,0,0,0,0,0,0,0,0,0,0,0,0,0,0,0,0,0,0,0,0,0],"split_type":[0,0,0,0,0,0,0,0,0,0,0,0,0,0,0,0,0,0,0,0,0,0,0,0,0,0,0,0,0,0,0,0,0,0,0,0,0,0,0,0,0,0,0,0,0,0,0,0,0,0,0,0,0,0,0,0,0,0,0,0,0,0,0,0,0,0,0,0,0,0,0,0,0,0,0,0,0,0,0,0,0],"sum_hessian":[7.988264E3,2.5886929E3,5.3995713E3,2.495587E3,9.310591E1,4.2844277E3,1.1151437E3,2.3391897E3,1.5639728E2,8.012839E1,1.2977521E1,3.4593074E3,8.251205E2,9.741809E2,1.4096278E2,1.4791222E2,8.485057E0,7.538648E1,4.7419057E0,1.9974996E0,1.0980021E1,3.2918499E3,1.6745747E2,2.9284888E2,5.322716E2,4.836126E2,4.905683E2,1.871952E1,1.2224326E2,1.4491643E2,2.9957852E0,1.249036E0,7.2360206E0,7.33887E1,1.9977795E0,2.7653354E3,5.265143E2,4.8733757E1,1.1872372E2,2.9159946E2,1.2494365E0,1.9990239E0,5.302726E2,2.4943433E2,2.341783E2,3.1226995E1,4.593413E2,1.7221432E1,1.4980884E0,1.1799699E2,4.2462807E0,1.4066762E2,4.24882E0,5.2901512E1,2.0487194E1,9.3475075E1,2.6718604E3,1.173756E1,5.1477673E2,4.298495E1,5.748803E0,1.0547715E2,1.3246565E1,2.4971077E0,2.8910233E2,1.4995143E0,5.287731E2,1.1972883E2,1.297055E2,1.3595766E2,9.8220634E1,2.8478458E1,2.7485356E0,3.072417E1,4.2861716E2,2.4996672E0,1.4721765E1,6.2412333E0,1.1175575E2,1.9979107E0,2.24837E0],"tree_param":{"num_deleted":"0","num_feature":"262","num_nodes":"81","size_leaf_vector":"1"}},{"base_weights":[-1.8313622E-5,-1.7618493E0,8.413872E-1,-1.797374E0,-8.030838E-1,1.1209725E0,-2.316979E-1,-9.079893E-2,-1.5094552E0,-1.1346017E0,1.1787584E0,1.0104563E0,1.6799909E0,-4.3987986E-1,1.2060121E0,-1.6691982E0,1.1535285E0,-1.3197917E0,7.63469E-2,-4.694529E-2,8.058094E-2,1.0551091E0,1.4252014E-1,1.4819213E0,1.7802176E0,1.05304636E-1,-9.7748494E-1,-1.2745488E0,1.5934963E0,-1.7418928E0,6.977021E-2,-5.2601963E-2,8.086122E-2,-1.4057359E0,6.2479563E-2,1.1191396E0,7.1548074E-1,4.4495976E-1,-4.1391852E-1,1.5264285E0,7.15934E-1,1.02676535E-2,1.7840408E0,-1.5629631E0,1.9654898E-1,7.313019E-1,-1.053469E0,-1.5342761E0,5.6266245E-2,1.6467583E0,8.6347096E-2,-8.857707E-2,-3.0716682E-2,2.3882914E-2,-7.255348E-2,2.3145046E-2,5.6948733E-2,-3.373971E-2,3.8568113E-2,3.0891538E-2,-1.3969602E-2,-5.1045924E-2,-2.0654942E-3,7.689293E-2,-1.5576742E-2,5.917426E-2,-2.8122751E-2,1.0363417E-2,8.939378E-2,1.07380785E-2,-8.522438E-2,-1.3611756E-2,2.8979203E-2,7.801504E-2,1.1178652E-2,-1.8252319E-2,-5.769634E-2,-1.298396E-2,-8.6069785E-2,1.5520737E-2,8.591964E-2,-4.6915438E-2,5.0282706E-2],"categories":[],"categories_nodes":[],"categories_segments":[],"categories_sizes":[],"default_left":[0,0,0,0,0,0,0,0,0,0,0,0,0,0,0,0,0,0,0,0,0,0,0,0,0,0,0,0,0,0,0,0,0,0,0,0,0,0,0,0,0,0,0,0,0,0,0,0,0,0,0,0,0,0,0,0,0,0,0,0,0,0,0,0,0,0,0,0,0,0,0,0,0,0,0,0,0,0,0,0,0,0,0],"id":2,"left_children":[1,3,5,7,9,11,13,-1,15,17,19,21,23,25,27,29,31,33,-1,-1,-1,35,37,39,41,43,45,47,49,51,-1,-1,-1,53,-1,55,57,59,61,63,65,-1,67,69,71,73,75,77,-1,79,81,-1,-1,-1,-1,-1,-1,-1,-1,-1,-1,-1,-1,-1,-1,-1,-1,-1,-1,-1,-1,-1,-1,-1,-1,-1,-1,-1,-1,-1,-1,-1,-1],"loss_changes":[1.1796694E4,8.6160645E1,1.6160681E3,1.0540527E1,6.290268E1,2.6227148E2,3.3395795E2,0E0,6.846127E1,4.1833633E1,1.4271902E1,1.3820459E2,1.1332886E1,2.8552704E2,1.3772334E2,3.5394897E1,1.1358726E1,1.8553864E1,0E0,0E0,0E0,7.303125E1,2.9774769E1,7.171997E0,2.4172363E0,7.404409E1,6.444699E1,1.39613285E1,9.694946E0,3.7585754E0,0E0,0E0,0E0,7.0177155E0,0E0,3.663208E1,4.257602E1,1.4497412E1,1.4078812E1,5.2738647E0,9.748484E0,0E0,2.4173584E0,6.7142525E0,8.278768E1,8.6877E0,3.2079407E1,3.8782005E0,0E0,1.079184E1,5.8778477E0,0E0,0E0,0E0,0E0,0E0,0E0,0E0,0E0,0E0,0E0,0E0,0E0,0E0,0E0,0E0,0E0,0E0,0E0,0E0,0E0,0E0,0E0,0E0,0E0,0E0,0E0,0E0,0E0,0E0,0E0,0E0,0E0],"parents":[2147483647,0,0,1,1,2,2,3,3,4,4,5,5,6,6,8,8,9,9,10,10,11,11,12,12,13,13,14,14,15,15,16,16,17,17,21,21,22,22,23,23,24,24,25,25,26,26,27,27,28,28,29,29,33,33,35,35,36,36,37,37,38,38,39,39,40,40,42,42,43,43,44,44,45,45,46,46,47,47,49,49,50,50],"right_children":[2,4,6,8,10,12,14,-1,16,18,20,22,24,26,28,30,32,34,-1,-1,-1,36,38,40,42,44,46,48,50,52,-1,-1,-1,54,-1,56,58,60,62,64,66,-1,68,70,72,74,76,78,-1,80,82,-1,-1,-1,-1,-1,-1,-1,-1,-1,-1,-1,-1,-1,-1,-1,-1,-1,-1,-1,-1,-1,-1,-1,-1,-1,-1,-1,-1,-1,-1,-1,-1],"split_conditions":[7.9406133E0,7.9374857E0,3E0,7.932319E0,2.7E1,5.859375E-3,1.4E1,-9.079893E-2,2.9E1,7.3242188E-3,1.2352637E2,1.2958057E2,6.591797E-3,7E0,1.24352295E2,8.300781E-3,1.2212915E2,7.8125E-3,7.63469E-2,-4.694529E-2,8.058094E-2,1E0,2.7225E2,5.6152344E-3,1.2487573E2,1.24352295E2,6.1035156E-3,2.7E1,6.1035156E-3,5.3710938E-3,6.977021E-2,-5.2601963E-2,8.086122E-2,1.953125E-3,6.2479563E-2,7.945647E0,1.2487573E2,4.8828125E-3,3.4179688E-3,6.591797E-3,4.638672E-3,1.02676535E-2,2.1972656E-3,2.9296875E-3,4E0,3.4179688E-3,3.1738281E-3,3.6621094E-3,5.6266245E-2,1.24770996E2,1.2559912E2,-8.857707E-2,-3.0716682E-2,2.3882914E-2,-7.255348E-2,2.3145046E-2,5.6948733E-2,-3.373971E-2,3.8568113E-2,3.0891538E-2,-1.3969602E-2,-5.1045924E-2,-2.0654942E-3,7.689293E-2,-1.5576742E-2,5.917426E-2,-2.8122751E-2,1.0363417E-2,8.939378E-2,1.07380785E-2,-8.522438E-2,-1.3611756E-2,2.8979203E-2,7.801504E-2,1.1178652E-2,-1.8252319E-2,-5.769634E-2,-1.298396E-2,-8.6069785E-2,1.5520737E-2,8.591964E-2,-4.6915438E-2,5.0282706E-2],"split_indices":[256,256,261,256,261,208,261,0,261,32,257,257,208,261,257,32,257,208,0,0,0,261,260,52,257,257,0,261,64,47,0,0,0,208,0,256,257,125,64,112,86,0,32,70,261,206,90,26,0,257,257,0,0,0,0,0,0,0,0,0,0,0,0,0,0,0,0,0,0,0,0,0,0,0,0,0,0,0,0,0,0,0,0],"split_type":[0,0,0,0,0,0,0,0,0,0,0,0,0,0,0,0,0,0,0,0,0,0,0,0,0,0,0,0,0,0,0,0,0,0,0,0,0,0,0,0,0,0,0,0,0,0,0,0,0,0,0,0,0,0,0,0,0,0,0,0,0,0,0,0,0,0,0,0,0,0,0,0,0,0,0,0,0,0,0,0,0,0,0],"sum_hessian":[7.9557583E3,2.571068E3,5.38469E3,2.4783638E3,9.270432E1,4.2716855E3,1.1130044E3,2.3229534E3,1.5541037E2,7.978549E1,1.2918831E1,3.5689275E3,7.027581E2,9.728314E2,1.4017299E2,1.469675E2,8.442871E0,7.506649E1,4.7190022E0,1.9941022E0,1.0924728E1,3.3940957E3,1.748319E2,2.414288E2,4.613293E2,4.834101E2,4.8942133E2,1.8628626E1,1.21544365E2,1.439837E2,2.9837933E0,1.2462543E0,7.1966166E0,7.3075066E1,1.9914231E0,2.8537751E3,5.403205E2,1.1339757E2,6.143433E1,2.2723282E2,1.4195985E1,1.249711E0,4.600796E2,2.4232126E1,4.5917798E2,2.0469233E1,4.689521E2,1.7134882E1,1.493745E0,1.17306175E2,4.2381883E0,1.3973824E2,4.245469E0,1.4934368E0,7.158163E1,8.4439964E1,2.7693352E3,2.0450766E1,5.1986975E2,9.1667595E1,2.1729975E1,2.2705652E1,3.872868E1,2.2599069E2,1.2421197E0,1.04487505E1,3.7472336E0,1.249773E0,4.5882983E2,1.7487067E0,2.248342E1,2.066073E2,2.5257066E2,6.9873986E0,1.3481833E1,6.030745E1,4.0864462E2,2.4991655E0,1.4635716E1,6.239599E0,1.11066574E2,1.9944797E0,2.2437088E0],"tree_param":{"num_deleted":"0","num_feature":"262","num_nodes":"83","size_leaf_vector":"1"}},{"base_weights":[-5.083599E-5,-1.6920757E0,8.029029E-1,-1.726504E0,-7.667587E-1,1.070041E0,-2.2076626E-1,-8.722383E-2,-1.4485977E0,-1.2696699E0,4.542225E-1,9.526973E-1,1.5642856E0,-4.1888726E-1,1.1564676E0,-1.6022642E0,1.106787E0,-1.3651246E0,6.0608525E-2,-1.2570893E0,1.2884214E0,9.957814E-1,1.0891399E-1,1.3352269E0,1.6883618E0,9.998797E-2,-9.320327E-1,-1.2222283E0,1.5285358E0,-1.6726402E0,6.748436E-2,-5.1246453E-2,7.790845E-2,-1.4491227E0,1.781886E-1,6.8621006E-4,-7.9304405E-2,1.632028E0,-4.644988E-2,1.0567857E0,6.751637E-1,-5.208919E-1,3.694798E-1,1.3495275E0,-5.5049468E-2,1.4597431E-2,1.6931361E0,-2.6194155E-1,4.850076E-1,3.8872668E-1,-1.0228282E0,-1.474486E0,5.4729182E-2,1.5799311E0,8.2886614E-2,-8.4627405E-2,-1.3684993E-2,-7.534036E-2,2.5721345E-2,-4.046389E-2,5.954307E-2,8.671571E-2,8.97124E-3,3.3781424E-4,5.343258E-2,-6.320431E-2,3.5557944E-2,4.4782817E-2,-3.365453E-2,2.5389377E-2,-3.446447E-2,-1.643562E-2,6.826168E-2,1.8099865E-2,8.481336E-2,-2.9290155E-2,1.9559949E-3,4.8262253E-3,5.085187E-2,3.0542469E-2,-4.3508973E-2,-5.5099573E-2,-8.576804E-3,-1.2522856E-2,-8.2782E-2,1.4856787E-2,8.246686E-2,-4.5439027E-2,4.865682E-2],"categories":[],"categories_nodes":[],"categories_segments":[],"categories_sizes":[],"default_left":[0,0,0,0,0,0,0,0,0,0,0,0,0,0,0,0,0,0,0,0,0,0,0,0,0,0,0,0,0,0,0,0,0,0,0,0,0,0,0,0,0,0,0,0,0,0,0,0,0,0,0,0,0,0,0,0,0,0,0,0,0,0,0,0,0,0,0,0,0,0,0,0,0,0,0,0,0,0,0,0,0,0,0,0,0,0,0,0,0],"id":3,"left_children":[1,3,5,7,9,11,13,-1,15,17,19,21,23,25,27,29,31,33,-1,35,37,39,41,43,45,47,49,51,53,55,-1,-1,-1,57,59,-1,-1,61,-1,63,65,67,69,71,-1,-1,73,75,77,79,81,83,-1,85,87,-1,-1,-1,-1,-1,-1,-1,-1,-1,-1,-1,-1,-1,-1,-1,-1,-1,-1,-1,-1,-1,-1,-1,-1,-1,-1,-1,-1,-1,-1,-1,-1,-1,-1],"loss_changes":[1.0743406E4,7.974902E1,1.4667295E3,9.724609E0,5.773806E1,2.4517139E2,3.0353952E2,0E0,6.2593567E1,1.7336876E1,4.143987E1,1.24933105E2,2.0893066E1,2.5882166E2,1.2572586E2,3.2694336E1,1.061984E1,8.582733E0,0E0,4.055257E0,1.6180315E1,6.329077E1,2.7798073E1,1.1622253E1,3.0029297E0,6.758153E1,5.899655E1,1.3001522E1,8.893585E0,3.5344543E0,0E0,0E0,0E0,7.685486E0,5.168777E0,0E0,0E0,2.2186966E0,0E0,3.422534E1,3.7606888E1,1.1305899E1,1.7860025E1,8.084839E0,0E0,0E0,1.5635986E0,2.4414442E1,4.8452335E1,9.523478E0,3.0642181E1,3.5760956E0,0E0,9.947937E0,5.4974165E0,0E0,0E0,0E0,0E0,0E0,0E0,0E0,0E0,0E0,0E0,0E0,0E0,0E0,0E0,0E0,0E0,0E0,0E0,0E0,0E0,0E0,0E0,0E0,0E0,0E0,0E0,0E0,0E0,0E0,0E0,0E0,0E0,0E0,0E0],"parents":[2147483647,0,0,1,1,2,2,3,3,4,4,5,5,6,6,8,8,9,9,10,10,11,11,12,12,13,13,14,14,15,15,16,16,17,17,19,19,20,20,21,21,22,22,23,23,24,24,25,25,26,26,27,27,28,28,29,29,33,33,34,34,37,37,39,39,40,40,41,41,42,42,43,43,46,46,47,47,48,48,49,49,50,50,51,51,53,53,54,54],"right_children":[2,4,6,8,10,12,14,-1,16,18,20,22,24,26,28,30,32,34,-1,36,38,40,42,44,46,48,50,52,54,56,-1,-1,-1,58,60,-1,-1,62,-1,64,66,68,70,72,-1,-1,74,76,78,80,82,84,-1,86,88,-1,-1,-1,-1,-1,-1,-1,-1,-1,-1,-1,-1,-1,-1,-1,-1,-1,-1,-1,-1,-1,-1,-1,-1,-1,-1,-1,-1,-1,-1,-1,-1,-1,-1],"split_conditions":[7.9406133E0,7.9374857E0,3E0,7.932319E0,3.715E2,5.6152344E-3,1.4E1,-8.722383E-2,2.9E1,7.8125E-3,1.24352295E2,1.2958057E2,6.3476562E-3,7E0,1.24352295E2,8.300781E-3,1.2212915E2,1.2207031E-2,6.0608525E-2,4.1503906E-3,9.521484E-3,1E0,7.950702E0,1.3114502E2,2.1972656E-3,4.3945312E-3,6.3476562E-3,2.7E1,6.1035156E-3,5.859375E-3,6.748436E-2,-5.1246453E-2,7.790845E-2,6.1035156E-3,4.1503906E-3,6.8621006E-4,-7.9304405E-2,5.6152344E-3,-4.644988E-2,7.943655E0,1.24352295E2,2.4414062E-3,5.6152344E-3,1.2463721E2,-5.5049468E-2,1.4597431E-2,1.2487573E2,4E0,4.3945312E-3,4.638672E-3,1.2E1,3.6621094E-3,5.4729182E-2,1.24770996E2,1.2559912E2,-8.4627405E-2,-1.3684993E-2,-7.534036E-2,2.5721345E-2,-4.046389E-2,5.954307E-2,8.671571E-2,8.97124E-3,3.3781424E-4,5.343258E-2,-6.320431E-2,3.5557944E-2,4.4782817E-2,-3.365453E-2,2.5389377E-2,-3.446447E-2,-1.643562E-2,6.826168E-2,1.8099865E-2,8.481336E-2,-2.9290155E-2,1.9559949E-3,4.8262253E-3,5.085187E-2,3.0542469E-2,-4.3508973E-2,-5.5099573E-2,-8.576804E-3,-1.2522856E-2,-8.2782E-2,1.4856787E-2,8.246686E-2,-4.5439027E-2,4.865682E-2],"split_indices":[256,256,261,256,260,208,261,0,261,208,257,257,208,261,257,32,257,0,0,52,255,261,256,257,32,72,0,261,64,248,0,0,0,242,39,0,0,152,0,256,257,45,247,257,0,0,257,261,139,150,261,26,0,257,257,0,0,0,0,0,0,0,0,0,0,0,0,0,0,0,0,0,0,0,0,0,0,0,0,0,0,0,0,0,0,0,0,0,0],"split_type":[0,0,0,0,0,0,0,0,0,0,0,0,0,0,0,0,0,0,0,0,0,0,0,0,0,0,0,0,0,0,0,0,0,0,0,0,0,0,0,0,0,0,0,0,0,0,0,0,0,0,0,0,0,0,0,0,0,0,0,0,0,0,0,0,0,0,0,0,0,0,0,0,0,0,0,0,0,0,0,0,0,0,0,0,0,0,0,0,0],"sum_hessian":[7.9056006E3,2.5438865E3,5.361714E3,2.4517966E3,9.208982E1,4.2520483E3,1.1096655E3,2.2979104E3,1.5388625E2,6.519621E1,2.6893614E1,3.438586E3,8.1346246E2,9.7071924E2,1.3894629E2,1.4550914E2,8.377113E0,6.3214844E1,1.9813684E0,8.647275E0,1.8246338E1,3.2713677E3,1.672183E2,2.8994763E2,5.235149E2,4.8306525E2,4.8765402E2,1.8484806E1,1.2046149E2,1.4254419E2,2.9649472E0,1.2418151E0,7.135298E0,6.000972E1,3.205122E0,1.9753678E0,6.6719074E0,1.6026848E1,2.2194903E0,2.7464932E3,5.248745E2,4.8643787E1,1.18574524E2,2.88699E2,1.2486024E0,1.9955598E0,5.215193E2,2.4916379E2,2.3390146E2,3.1156338E1,4.5649768E2,1.699765E1,1.4871564E0,1.162362E2,4.2252884E0,1.403372E2,2.2069783E0,5.8523056E1,1.4866629E0,1.7244473E0,1.4806746E0,1.4791366E1,1.2354816E0,3.0707521E1,2.7157856E3,8.943114E0,5.159314E2,4.245467E0,4.439832E1,1.05334946E2,1.3239577E1,2.49203E0,2.86207E2,1.4974504E0,5.2002185E2,1.1958093E2,1.2958286E2,1.3587111E2,9.803036E1,2.6921124E1,4.2352138E0,4.173894E2,3.910828E1,2.4984677E0,1.4499182E1,6.237271E0,1.09998924E2,1.9889462E0,2.2363424E0],"tree_param":{"num_deleted":"0","num_feature":"262","num_nodes":"89","size_leaf_vector":"1"}},{"base_weights":[-1.297194E-4,-1.6306174E0,7.671896E-1,-1.664133E0,-7.348108E-1,1.0228742E0,-2.1054725E-1,-8.408033E-2,-1.3942821E0,-1.0270922E0,1.1758318E0,9.094643E-1,1.5037923E0,-3.9917782E-1,1.1120899E0,-1.5425786E0,1.0643592E0,-1.19608E0,7.1532875E-2,-4.9547948E-2,7.475022E-2,9.677118E-1,3.2649782E-1,1.2791531E0,1.6261278E0,5.7861548E-2,-9.308916E-1,-1.174941E0,1.4704106E0,-1.6109463E0,6.538106E-2,-4.9962826E-2,7.525103E-2,-1.2751288E0,5.8864515E-2,1.0266719E0,6.630678E-1,4.2351016E-1,-7.977521E-1,1.2930818E0,-5.3560264E-2,1.4116119E-2,1.6307786E0,-2.0347561E-1,6.7597944E-1,-3.7166372E-1,-1.065697E0,-1.4206805E0,5.328191E-2,1.5202427E0,7.963263E-2,-8.202269E-2,-2.6212592E-2,-7.713916E-2,-3.9844543E-2,2.3407139E-2,5.2296527E-2,3.799648E-2,-2.5073213E-3,-5.1478106E-3,2.9603068E-2,1.0503664E-2,-7.501861E-2,-1.5844313E-2,6.5414295E-2,1.7564354E-2,8.169098E-2,7.2996127E-3,-2.1227455E-2,4.037735E-2,-1.0763207E-2,-7.730564E-2,1.0211829E-3,-3.8914827E-3,-5.6927837E-2,-1.2078766E-2,-7.9857096E-2,1.4222488E-2,7.9396725E-2,-4.4039074E-2,4.7121473E-2],"categories":[],"categories_nodes":[],"categories_segments":[],"categories_sizes":[],"default_left":[0,0,0,0,0,0,0,0,0,0,0,0,0,0,0,0,0,0,0,0,0,0,0,0,0,0,0,0,0,0,0,0,0,0,0,0,0,0,0,0,0,0,0,0,0,0,0,0,0,0,0,0,0,0,0,0,0,0,0,0,0,0,0,0,0,0,0,0,0,0,0,0,0,0,0,0,0,0,0,0,0],"id":4,"left_children":[1,3,5,7,9,11,13,-1,15,17,19,21,23,25,27,29,31,33,-1,-1,-1,35,37,39,41,43,45,47,49,51,-1,-1,-1,53,-1,55,57,59,61,63,-1,-1,65,67,69,71,73,75,-1,77,79,-1,-1,-1,-1,-1,-1,-1,-1,-1,-1,-1,-1,-1,-1,-1,-1,-1,-1,-1,-1,-1,-1,-1,-1,-1,-1,-1,-1,-1,-1],"loss_changes":[9.81193E3,7.412695E1,1.3334009E3,9.059082E0,5.2753334E1,2.292085E2,2.764608E2,0E0,5.7400665E1,3.518229E1,1.0273386E1,1.15930176E2,2.0047363E1,2.3552817E2,1.15105255E2,3.029068E1,9.952798E0,1.5750221E1,0E0,0E0,0E0,5.5215088E1,3.4419838E1,1.0832275E1,2.774414E0,8.4462975E1,3.33739E1,1.2138266E1,8.199402E0,3.6835327E0,0E0,0E0,0E0,8.240356E0,0E0,2.7536133E1,3.5093323E1,2.564542E1,1.813832E1,7.4478455E0,0E0,0E0,1.432373E0,2.8467089E1,1.8390366E1,4.080491E1,2.5852264E1,3.3213692E0,0E0,9.239349E0,5.145732E0,0E0,0E0,0E0,0E0,0E0,0E0,0E0,0E0,0E0,0E0,0E0,0E0,0E0,0E0,0E0,0E0,0E0,0E0,0E0,0E0,0E0,0E0,0E0,0E0,0E0,0E0,0E0,0E0,0E0,0E0],"parents":[2147483647,0,0,1,1,2,2,3,3,4,4,5,5,6,6,8,8,9,9,10,10,11,11,12,12,13,13,14,14,15,15,16,16,17,17,21,21,22,22,23,23,24,24,25,25,26,26,27,27,28,28,29,29,33,33,35,35,36,36,37,37,38,38,39,39,42,42,43,43,44,44,45,45,46,46,47,47,49,49,50,50],"right_children":[2,4,6,8,10,12,14,-1,16,18,20,22,24,26,28,30,32,34,-1,-1,-1,36,38,40,42,44,46,48,50,52,-1,-1,-1,54,-1,56,58,60,62,64,-1,-1,66,68,70,72,74,76,-1,78,80,-1,-1,-1,-1,-1,-1,-1,-1,-1,-1,-1,-1,-1,-1,-1,-1,-1,-1,-1,-1,-1,-1,-1,-1,-1,-1,-1,-1,-1,-1],"split_conditions":[7.9406133E0,7.9374857E0,3E0,7.932319E0,2.9E1,5.6152344E-3,1.4E1,-8.408033E-2,2.9E1,7.3242188E-3,1.23204346E2,1.2912085E2,6.3476562E-3,7.3242188E-3,1.24352295E2,8.300781E-3,1.2212915E2,7.8125E-3,7.1532875E-2,-4.9547948E-2,7.475022E-2,1E0,1.3074268E2,1.3114502E2,2.1972656E-3,4.8828125E-3,7E0,2.7E1,6.1035156E-3,5.3710938E-3,6.538106E-2,-4.9962826E-2,7.525103E-2,3.90625E-3,5.8864515E-2,7.945944E0,6.3476562E-3,7.950702E0,3.90625E-3,1.2463721E2,-5.3560264E-2,1.4116119E-2,1.2487573E2,3.90625E-3,8E0,1.2487573E2,2.9296875E-3,3.6621094E-3,5.328191E-2,1.24770996E2,1.2559912E2,-8.202269E-2,-2.6212592E-2,-7.713916E-2,-3.9844543E-2,2.3407139E-2,5.2296527E-2,3.799648E-2,-2.5073213E-3,-5.1478106E-3,2.9603068E-2,1.0503664E-2,-7.501861E-2,-1.5844313E-2,6.5414295E-2,1.7564354E-2,8.169098E-2,7.2996127E-3,-2.1227455E-2,4.037735E-2,-1.0763207E-2,-7.730564E-2,1.0211829E-3,-3.8914827E-3,-5.6927837E-2,-1.2078766E-2,-7.9857096E-2,1.4222488E-2,7.9396725E-2,-4.4039074E-2,4.7121473E-2],"split_indices":[256,256,261,256,261,208,261,0,261,32,257,257,208,0,257,32,257,208,0,0,0,261,257,257,32,72,261,261,64,47,0,0,0,249,0,256,0,256,63,257,0,0,257,2,261,257,4,26,0,257,257,0,0,0,0,0,0,0,0,0,0,0,0,0,0,0,0,0,0,0,0,0,0,0,0,0,0,0,0,0,0],"split_type":[0,0,0,0,0,0,0,0,0,0,0,0,0,0,0,0,0,0,0,0,0,0,0,0,0,0,0,0,0,0,0,0,0,0,0,0,0,0,0,0,0,0,0,0,0,0,0,0,0,0,0,0,0,0,0,0,0,0,0,0,0,0,0,0,0,0,0,0,0,0,0,0,0,0,0,0,0,0,0,0,0],"sum_hessian":[7.8406123E3,2.508705E3,5.3319077E3,2.417403E3,9.130205E1,4.2265825E3,1.1053252E3,2.2654749E3,1.5192801E2,7.958928E1,1.1712769E1,3.4224036E3,8.041789E2,9.679738E2,1.3735135E2,1.4363692E2,8.291081E0,7.4949326E1,4.6399546E0,1.2335693E0,1.0479198E1,3.1109143E3,3.114891E2,2.8757465E2,5.1660425E2,5.210187E2,4.4695517E2,1.8295948E1,1.19055405E2,1.4069682E2,2.9400964E0,1.2358708E0,7.05521E0,7.29813E1,1.9680241E0,2.6044792E3,5.0643503E2,2.873194E2,2.416971E1,2.8632767E2,1.2469908E0,1.9945438E0,5.146097E2,3.6666525E2,1.5435342E2,8.7544E1,3.5941116E2,1.68174E1,1.478548E0,1.148473E2,4.208108E0,1.3648132E2,4.2155066E0,4.5365643E1,2.7615662E1,8.765488E1,2.5168245E3,4.4582236E2,6.0612694E1,6.977321E1,2.1754617E2,1.0216443E1,1.3953266E1,2.4930718E0,2.838346E2,1.4964638E0,5.131132E2,1.4220712E2,2.2445815E2,1.3458028E2,1.977315E1,2.1174658E1,6.636934E1,2.482948E1,3.345817E2,2.4975955E0,1.4319805E1,6.2343426E0,1.0861295E2,1.9815356E0,2.2265723E0],"tree_param":{"num_deleted":"0","num_feature":"262","num_nodes":"81","size_leaf_vector":"1"}},{"base_weights":[-2.2152458E-4,-1.5760891E0,7.338154E-1,-1.6088918E0,-7.051193E-1,9.7895175E-1,-2.0095515E-1,-8.129718E-2,-1.3459159E0,-1.173133E0,4.3051893E-1,8.789038E-1,1.4963392E0,-3.8054326E-1,1.0720522E0,-1.4894881E0,1.025629E0,-1.2630997E0,5.7234164E-2,-1.1802343E0,1.2174271E0,9.349431E-1,3.2819614E-1,1.3078443E0,1.5929239E0,9.304404E-2,-8.527229E-1,-1.1319256E0,1.4180223E0,-1.5561309E0,6.343804E-2,-4.874517E-2,7.284584E-2,-1.343269E0,1.9226842E-1,5.617366E-4,-7.45614E-2,1.5395643E0,-4.287644E-2,9.927224E-1,6.352168E-1,4.2174125E-1,-7.3138434E-1,1.3515774E0,5.7142043E-1,8.998696E-3,1.5964991E0,-1.458481E0,1.7747174E-1,6.8612176E-1,-9.2197365E-1,-1.3719437E0,5.1916283E-2,1.4665395E0,7.656616E-2,-7.925523E-2,-2.520608E-2,-6.9992386E-2,2.636203E-2,5.8211815E-2,-3.8481638E-2,8.191933E-2,8.008165E-3,4.800363E-2,6.6695325E-2,-3.273567E-2,3.4461763E-2,-2.5580998E-3,2.8707145E-2,7.818738E-3,-6.536784E-2,6.9365636E-2,2.8439928E-2,4.9870115E-2,-3.7548225E-2,9.283138E-3,8.000336E-2,1.12924585E-2,-7.972422E-2,-1.2852837E-2,2.6637048E-2,3.3952382E-3,6.636614E-2,-4.995472E-2,-4.52364E-3,-1.1651011E-2,-7.723834E-2,1.3616309E-2,7.6647006E-2,-4.270896E-2,4.5668166E-2],"categories":[],"categories_nodes":[],"categories_segments":[],"categories_sizes":[],"default_left":[0,0,0,0,0,0,0,0,0,0,0,0,0,0,0,0,0,0,0,0,0,0,0,0,0,0,0,0,0,0,0,0,0,0,0,0,0,0,0,0,0,0,0,0,0,0,0,0,0,0,0,0,0,0,0,0,0,0,0,0,0,0,0,0,0,0,0,0,0,0,0,0,0,0,0,0,0,0,0,0,0,0,0,0,0,0,0,0,0,0,0],"id":5,"left_children":[1,3,5,7,9,11,13,-1,15,17,19,21,23,25,27,29,31,33,-1,35,37,39,41,43,45,47,49,51,53,55,-1,-1,-1,57,59,-1,-1,61,-1,63,65,67,69,71,73,-1,75,77,79,81,83,85,-1,87,89,-1,-1,-1,-1,-1,-1,-1,-1,-1,-1,-1,-1,-1,-1,-1,-1,-1,-1,-1,-1,-1,-1,-1,-1,-1,-1,-1,-1,-1,-1,-1,-1,-1,-1,-1,-1],"loss_changes":[8.983085E3,6.937109E1,1.2142188E3,8.472656E0,4.905716E1,2.1596118E2,2.5223906E2,0E0,5.2797455E1,1.4991455E1,3.615586E1,1.0831665E2,1.0273315E1,2.1611546E2,1.0564841E2,2.8148071E1,9.347579E0,7.6096725E0,0E0,3.5359745E0,1.3949244E1,5.468506E1,3.268313E1,6.813568E0,1.956665E0,6.355786E1,5.2196106E1,1.1357588E1,7.59227E0,3.4523315E0,0E0,0E0,0E0,7.0712585E0,4.78943E0,0E0,0E0,2.0157585E0,0E0,2.8530518E1,3.661557E1,2.1705742E1,1.3939964E1,5.409729E0,9.162681E0,0E0,1.9326172E0,6.097702E0,7.1023056E1,8.396977E0,2.9629028E1,3.1044655E0,0E0,8.637604E0,4.8201475E0,0E0,0E0,0E0,0E0,0E0,0E0,0E0,0E0,0E0,0E0,0E0,0E0,0E0,0E0,0E0,0E0,0E0,0E0,0E0,0E0,0E0,0E0,0E0,0E0,0E0,0E0,0E0,0E0,0E0,0E0,0E0,0E0,0E0,0E0,0E0,0E0],"parents":[2147483647,0,0,1,1,2,2,3,3,4,4,5,5,6,6,8,8,9,9,10,10,11,11,12,12,13,13,14,14,15,15,16,16,17,17,19,19,20,20,21,21,22,22,23,23,24,24,25,25,26,26,27,27,28,28,29,29,33,33,34,34,37,37,39,39,40,40,41,41,42,42,43,43,44,44,46,46,47,47,48,48,49,49,50,50,51,51,53,53,54,54],"right_children":[2,4,6,8,10,12,14,-1,16,18,20,22,24,26,28,30,32,34,-1,36,38,40,42,44,46,48,50,52,54,56,-1,-1,-1,58,60,-1,-1,62,-1,64,66,68,70,72,74,-1,76,78,80,82,84,86,-1,88,90,-1,-1,-1,-1,-1,-1,-1,-1,-1,-1,-1,-1,-1,-1,-1,-1,-1,-1,-1,-1,-1,-1,-1,-1,-1,-1,-1,-1,-1,-1,-1,-1,-1,-1,-1,-1],"split_conditions":[7.9406133E0,7.9374857E0,3E0,7.932319E0,3.715E2,5.859375E-3,1.4E1,-8.129718E-2,2.9E1,7.8125E-3,1.24352295E2,1.2912085E2,6.591797E-3,7E0,1.24352295E2,8.300781E-3,1.2212915E2,1.2207031E-2,5.7234164E-2,4.1503906E-3,9.521484E-3,1E0,1.3074268E2,5.6152344E-3,1.2487573E2,1.24352295E2,6.1035156E-3,2.7E1,6.1035156E-3,5.3710938E-3,6.343804E-2,-4.874517E-2,7.284584E-2,6.1035156E-3,4.1503906E-3,5.617366E-4,-7.45614E-2,5.6152344E-3,-4.287644E-2,5.6152344E-3,1.2487573E2,7.950702E0,3.90625E-3,5.6152344E-3,4.8828125E-3,8.998696E-3,2.1972656E-3,2.9296875E-3,4E0,3.90625E-3,1.2E1,3.6621094E-3,5.1916283E-2,1.24770996E2,1.2559912E2,-7.925523E-2,-2.520608E-2,-6.9992386E-2,2.636203E-2,5.8211815E-2,-3.8481638E-2,8.191933E-2,8.008165E-3,4.800363E-2,6.6695325E-2,-3.273567E-2,3.4461763E-2,-2.5580998E-3,2.8707145E-2,7.818738E-3,-6.536784E-2,6.9365636E-2,2.8439928E-2,4.9870115E-2,-3.7548225E-2,9.283138E-3,8.000336E-2,1.12924585E-2,-7.972422E-2,-1.2852837E-2,2.6637048E-2,3.3952382E-3,6.636614E-2,-4.995472E-2,-4.52364E-3,-1.1651011E-2,-7.723834E-2,1.3616309E-2,7.6647006E-2,-4.270896E-2,4.5668166E-2],"split_indices":[256,256,261,256,260,208,261,0,261,208,257,257,208,261,257,32,257,0,0,52,255,261,257,52,257,257,0,261,64,47,0,0,0,242,76,0,0,152,0,32,257,256,63,185,77,0,32,70,261,211,261,26,0,257,257,0,0,0,0,0,0,0,0,0,0,0,0,0,0,0,0,0,0,0,0,0,0,0,0,0,0,0,0,0,0,0,0,0,0,0,0],"split_type":[0,0,0,0,0,0,0,0,0,0,0,0,0,0,0,0,0,0,0,0,0,0,0,0,0,0,0,0,0,0,0,0,0,0,0,0,0,0,0,0,0,0,0,0,0,0,0,0,0,0,0,0,0,0,0,0,0,0,0,0,0,0,0,0,0,0,0,0,0,0,0,0,0,0,0,0,0,0,0,0,0,0,0,0,0,0,0,0,0,0,0],"sum_hessian":[7.7638306E3,2.46681E3,5.29702E3,2.37646E3,9.035018E1,4.1964785E3,1.1005416E3,2.2268823E3,1.4957753E2,6.395878E1,2.63914E1,3.5187515E3,6.777271E2,9.6509326E2,1.3544841E2,1.413898E2,8.187736E0,6.2007008E1,1.9517703E0,8.497564E0,1.7893835E1,3.1931257E3,3.2562576E2,2.3453952E2,4.431876E2,4.8222928E2,4.82864E2,1.806905E1,1.1737936E2,1.3847978E2,2.910019E0,1.2285668E0,6.9591684E0,5.8842667E1,3.1643395E0,1.9584162E0,6.5391483E0,1.5712495E1,2.1813412E0,2.675121E3,5.1800464E2,2.9976315E2,2.5862625E1,2.2060344E2,1.3936069E1,1.2481803E0,4.419394E2,2.4046814E1,4.5818246E2,2.0410389E1,4.624536E2,1.6600918E1,1.4681317E0,1.1319222E2,4.1871324E0,1.3427493E2,4.2048473E0,5.7359303E1,1.4833671E0,1.4693067E0,1.6950328E0,1.4486882E1,1.2256128E0,2.444963E3,2.3015826E2,2.0373655E1,4.9763095E2,7.3221306E1,2.2654184E2,1.0463502E1,1.5399124E1,2.1023364E2,1.0369807E1,1.0726485E1,3.2095835E0,1.2486384E0,4.4069077E2,1.7472644E0,2.2299551E1,2.0622539E2,2.5195708E2,1.0954479E1,9.455909E0,4.2301767E2,3.9435944E1,2.496569E0,1.4104349E1,6.2309E0,1.0696132E2,1.9724553E0,2.214677E0],"tree_param":{"num_deleted":"0","num_feature":"262","num_nodes":"91","size_leaf_vector":"1"}},{"base_weights":[-3.023108E-4,-1.5274317E0,7.026544E-1,-1.5596523E0,-6.782234E-1,9.379093E-1,-1.9192685E-1,-1.5763602E0,-1.3023844E0,-1.128154E0,4.1283992E-1,8.304846E-1,1.4015129E0,-3.6302808E-1,1.0356905E0,-7.8840636E-2,-3.0059306E-2,-1.4417521E0,9.9008936E-1,-1.2157036E0,5.5705823E-2,-1.1400834E0,1.1731365E0,8.6933583E-1,7.979235E-2,1.1845616E0,1.5213444E0,2.407746E-2,-9.097211E-1,-1.0925628E0,1.3704895E0,-1.5068983E0,6.1636355E-2,-4.7588192E-2,7.0657544E-2,-1.2937547E0,1.8797591E-1,5.431448E-4,-7.2205365E-2,1.5375334E0,-6.092382E-1,9.24481E-1,5.8253175E-1,-4.3197957E-1,3.2998416E-1,1.1979872E0,-5.16071E-2,6.440826E-1,1.5293928E0,-2.1113968E-1,6.001849E-1,-1.4559295E0,-7.949318E-1,-1.3275316E0,5.0625037E-2,1.4178976E0,7.3670395E-2,-7.6355435E-2,-7.921333E-3,-6.74608E-2,2.5534827E-2,5.6587864E-2,-3.7392627E-2,7.9507194E-2,2.4190681E-2,-5.290032E-2,1.0765808E-2,1.7868457E-2,4.7226243E-2,2.394074E-2,6.488675E-2,-4.373243E-2,4.8900223E-3,5.101345E-3,4.676321E-2,-1.5846027E-2,6.063187E-2,-3.479134E-2,6.49669E-2,7.6742046E-2,3.0008722E-2,-1.4908983E-3,-3.157127E-2,4.187851E-2,2.939063E-3,2.5812283E-2,-7.53828E-2,-1.941149E-3,-4.7467098E-2,-1.1238895E-2,-7.488011E-2,1.3036822E-2,7.4168004E-2,-4.1442808E-2,4.428945E-2],"categories":[],"categories_nodes":[],"categories_segments":[],"categories_sizes":[],"default_left":[0,0,0,0,0,0,0,0,0,0,0,0,0,0,0,0,0,0,0,0,0,0,0,0,0,0,0,0,0,0,0,0,0,0,0,0,0,0,0,0,0,0,0,0,0,0,0,0,0,0,0,0,0,0,0,0,0,0,0,0,0,0,0,0,0,0,0,0,0,0,0,0,0,0,0,0,0,0,0,0,0,0,0,0,0,0,0,0,0,0,0,0,0,0,0],"id":6,"left_children":[1,3,5,7,9,11,13,15,17,19,21,23,25,27,29,-1,-1,31,33,35,-1,37,39,41,43,45,47,49,51,53,55,57,-1,-1,-1,59,61,-1,-1,63,65,67,69,71,73,75,-1,77,79,81,83,85,87,89,-1,91,93,-1,-1,-1,-1,-1,-1,-1,-1,-1,-1,-1,-1,-1,-1,-1,-1,-1,-1,-1,-1,-1,-1,-1,-1,-1,-1,-1,-1,-1,-1,-1,-1,-1,-1,-1,-1,-1,-1],"loss_changes":[8.242894E3,6.5168945E1,1.1067732E3,7.966797E0,4.476779E1,2.061853E2,2.305192E2,1.6113281E-2,4.8685394E1,1.3950531E1,3.3312263E1,9.8586426E1,1.852246E1,2.036894E2,9.7184204E1,0E0,0E0,2.622293E1,8.795976E0,7.0611954E0,0E0,3.3077536E0,1.306497E1,5.0326416E1,2.1596016E1,9.649506E0,2.5458984E0,7.6609184E1,2.3858337E1,1.0648159E1,7.0566864E0,3.4909058E0,0E0,0E0,0E0,6.6016083E0,4.512819E0,0E0,0E0,1.0588074E-1,1.6657093E0,3.030542E1,3.8051895E1,1.3089236E1,1.5510246E1,6.6306763E0,0E0,6.4125648E0,1.5838623E0,3.0579216E1,2.1014183E1,7.723892E0,3.8712418E1,2.9180794E0,0E0,8.121323E0,4.518318E0,0E0,0E0,0E0,0E0,0E0,0E0,0E0,0E0,0E0,0E0,0E0,0E0,0E0,0E0,0E0,0E0,0E0,0E0,0E0,0E0,0E0,0E0,0E0,0E0,0E0,0E0,0E0,0E0,0E0,0E0,0E0,0E0,0E0,0E0,0E0,0E0,0E0,0E0],"parents":[2147483647,0,0,1,1,2,2,3,3,4,4,5,5,6,6,7,7,8,8,9,9,10,10,11,11,12,12,13,13,14,14,17,17,18,18,19,19,21,21,22,22,23,23,24,24,25,25,26,26,27,27,28,28,29,29,30,30,31,31,35,35,36,36,39,39,40,40,41,41,42,42,43,43,44,44,45,45,47,47,48,48,49,49,50,50,51,51,52,52,53,53,55,55,56,56],"right_children":[2,4,6,8,10,12,14,16,18,20,22,24,26,28,30,-1,-1,32,34,36,-1,38,40,42,44,46,48,50,52,54,56,58,-1,-1,-1,60,62,-1,-1,64,66,68,70,72,74,76,-1,78,80,82,84,86,88,90,-1,92,94,-1,-1,-1,-1,-1,-1,-1,-1,-1,-1,-1,-1,-1,-1,-1,-1,-1,-1,-1,-1,-1,-1,-1,-1,-1,-1,-1,-1,-1,-1,-1,-1,-1,-1,-1,-1,-1,-1],"split_conditions":[7.9406133E0,7.9374857E0,3E0,7.932319E0,3.715E2,5.6152344E-3,1.4E1,1.977539E-2,2.9E1,7.8125E-3,1.24352295E2,1.2958057E2,6.3476562E-3,7.5683594E-3,1.24352295E2,-7.8840636E-2,-3.0059306E-2,8.300781E-3,1.2212915E2,1.2207031E-2,5.5705823E-2,4.1503906E-3,5.6152344E-3,1E0,7.9512134E0,1.3114502E2,2.4414062E-3,4.8828125E-3,1.2487573E2,2.7E1,6.1035156E-3,5.859375E-3,6.1636355E-2,-4.7588192E-2,7.0657544E-2,6.1035156E-3,4.1503906E-3,5.431448E-4,-7.2205365E-2,7.525772E1,3.6621094E-3,7.945944E0,5.6152344E-3,3.90625E-3,4.638672E-3,1.2463721E2,-5.16071E-2,3.4179688E-3,6.8359375E-3,4.638672E-3,4.638672E-3,2.4414062E-3,7E0,3.6621094E-3,5.0625037E-2,1.24770996E2,1.2559912E2,-7.6355435E-2,-7.921333E-3,-6.74608E-2,2.5534827E-2,5.6587864E-2,-3.7392627E-2,7.9507194E-2,2.4190681E-2,-5.290032E-2,1.0765808E-2,1.7868457E-2,4.7226243E-2,2.394074E-2,6.488675E-2,-4.373243E-2,4.8900223E-3,5.101345E-3,4.676321E-2,-1.5846027E-2,6.063187E-2,-3.479134E-2,6.49669E-2,7.6742046E-2,3.0008722E-2,-1.4908983E-3,-3.157127E-2,4.187851E-2,2.939063E-3,2.5812283E-2,-7.53828E-2,-1.941149E-3,-4.7467098E-2,-1.1238895E-2,-7.488011E-2,1.3036822E-2,7.4168004E-2,-4.1442808E-2,4.428945E-2],"split_indices":[256,256,261,256,260,208,261,150,261,208,257,257,208,0,257,0,0,32,257,0,0,52,212,261,256,257,32,72,257,261,64,248,0,0,0,242,76,0,0,258,21,256,72,160,161,257,0,12,0,22,4,4,261,26,0,257,257,0,0,0,0,0,0,0,0,0,0,0,0,0,0,0,0,0,0,0,0,0,0,0,0,0,0,0,0,0,0,0,0,0,0,0,0,0,0],"split_type":[0,0,0,0,0,0,0,0,0,0,0,0,0,0,0,0,0,0,0,0,0,0,0,0,0,0,0,0,0,0,0,0,0,0,0,0,0,0,0,0,0,0,0,0,0,0,0,0,0,0,0,0,0,0,0,0,0,0,0,0,0,0,0,0,0,0,0,0,0,0,0,0,0,0,0,0,0,0,0,0,0,0,0,0,0,0,0,0,0,0,0,0,0,0,0],"sum_hessian":[7.676481E3,2.4193728E3,5.2571084E3,2.3301267E3,8.924605E1,4.162433E3,1.0946754E3,2.1832131E3,1.4691371E2,6.316442E1,2.6081627E1,3.3816414E3,7.8079156E2,9.61385E2,1.3329037E2,2.1815837E3,1.6292634E0,1.38844E2,8.069726E0,6.123146E1,1.9329594E0,8.408186E0,1.767344E1,3.21509E3,1.6655138E2,2.8168857E2,4.9910303E2,5.634032E2,3.9798184E2,1.7810305E1,1.15480064E2,1.3596857E2,2.8754256E0,1.2200389E0,6.8496876E0,5.8080242E1,3.1512218E0,1.9584253E0,6.449761E0,1.4787569E1,2.885871E0,2.6947373E3,5.203528E2,5.444879E1,1.1210259E2,2.8044955E2,1.2389972E0,5.273985E0,4.9382904E2,4.0051263E2,1.6289056E2,6.70848E1,3.3089703E2,1.6354198E1,1.4561058E0,1.1131725E2,4.1628113E0,1.3383029E2,2.1382623E0,5.6593098E1,1.4871447E0,1.4647052E0,1.6865165E0,1.3599492E1,1.1880774E0,1.6854374E0,1.2004335E0,9.2633484E1,2.6021038E3,4.559077E2,6.444507E1,2.930849E1,2.51403E1,8.22824E1,2.9820189E1,2.4885397E0,2.7796103E2,1.7117561E0,3.562229E0,4.9030264E2,3.5263906E0,2.8054813E2,1.1996449E2,1.1285905E2,5.003151E1,1.4850228E0,6.559978E1,5.6327305E1,2.7456973E2,2.495407E0,1.3858791E1,6.227019E0,1.0509024E2,1.961898E0,2.2009132E0],"tree_param":{"num_deleted":"0","num_feature":"262","num_nodes":"95","size_leaf_vector":"1"}},{"base_weights":[-3.9439648E-4,-1.469896E0,6.7970836E-1,-1.5155077E0,-5.897446E-1,9.04038E-1,-1.801496E-1,-7.659802E-2,-1.2626687E0,-8.577121E-1,1.1218799E0,8.098329E-1,1.402575E0,-3.50749E-1,1.0067604E0,-1.398235E0,9.573186E-1,-9.960402E-1,6.97965E-2,-3.8631395E-2,1.4205056E0,8.622167E-1,2.981543E-1,1.218126E0,1.4986873E0,9.769394E-2,-8.1488943E-1,-7.9062295E-1,1.369947E0,-1.462062E0,5.9959818E-2,-4.6487123E-2,6.865691E-2,-1.1046791E0,6.3827954E-2,7.37386E-2,2.1331875E-2,9.155509E-1,5.869435E-1,3.607572E-1,-1.1220059E0,7.0429873E-1,1.2841101E0,6.8995007E-3,1.5023572E0,-2.8139746E-1,4.029374E-1,6.446563E-1,-8.828129E-1,-1.0903126E0,6.321817E-2,1.4207755E0,-4.206613E-2,-7.4590124E-2,-2.135145E-2,-6.556967E-2,-2.8312022E-2,4.6086304E-2,-3.2381292E-2,2.440447E-2,6.2452395E-2,-5.735872E-3,2.4994258E-2,-7.687869E-2,2.0755423E-2,4.5719825E-2,-4.3323807E-2,1.13320155E-2,6.5741085E-2,8.8905385E-3,7.529258E-2,-2.1915162E-2,3.7054252E-2,-5.265239E-2,2.7055312E-2,7.293254E-2,7.2397976E-3,-1.1066177E-2,-4.897719E-2,-9.253025E-3,-7.1827725E-2,-3.6232078E-3,7.221669E-2,-5.440733E-2,4.2978745E-2],"categories":[],"categories_nodes":[],"categories_segments":[],"categories_sizes":[],"default_left":[0,0,0,0,0,0,0,0,0,0,0,0,0,0,0,0,0,0,0,0,0,0,0,0,0,0,0,0,0,0,0,0,0,0,0,0,0,0,0,0,0,0,0,0,0,0,0,0,0,0,0,0,0,0,0,0,0,0,0,0,0,0,0,0,0,0,0,0,0,0,0,0,0,0,0,0,0,0,0,0,0,0,0,0,0],"id":7,"left_children":[1,3,5,7,9,11,13,-1,15,17,19,21,23,25,27,29,31,33,-1,-1,35,37,39,41,43,45,47,49,51,53,-1,-1,-1,55,-1,-1,-1,57,59,61,63,65,67,-1,69,71,73,75,77,79,-1,81,83,-1,-1,-1,-1,-1,-1,-1,-1,-1,-1,-1,-1,-1,-1,-1,-1,-1,-1,-1,-1,-1,-1,-1,-1,-1,-1,-1,-1,-1,-1,-1,-1],"loss_changes":[7.5789653E3,9.542578E1,1.00014087E3,7.552246E0,5.593176E1,1.9196729E2,2.1771928E2,0E0,4.4981415E1,3.3871315E1,1.0520922E1,9.249829E1,9.734863E0,1.9559064E2,8.931648E1,2.4478455E1,8.291221E0,2.579078E1,0E0,0E0,1.658287E-1,4.5542725E1,2.911311E1,6.8506775E0,1.9118652E0,5.5498474E1,4.6339813E1,1.5761845E1,8.156158E0,3.4951172E0,0E0,0E0,0E0,9.806808E0,0E0,0E0,0E0,2.5958984E1,3.291475E1,2.0566353E1,9.502251E0,1.0113686E1,6.245697E0,0E0,1.6907349E0,3.4670418E1,5.3991524E1,8.3774395E0,2.8038391E1,6.2910366E0,0E0,3.9362183E0,5.5484567E0,0E0,0E0,0E0,0E0,0E0,0E0,0E0,0E0,0E0,0E0,0E0,0E0,0E0,0E0,0E0,0E0,0E0,0E0,0E0,0E0,0E0,0E0,0E0,0E0,0E0,0E0,0E0,0E0,0E0,0E0,0E0,0E0],"parents":[2147483647,0,0,1,1,2,2,3,3,4,4,5,5,6,6,8,8,9,9,10,10,11,11,12,12,13,13,14,14,15,15,16,16,17,17,20,20,21,21,22,22,23,23,24,24,25,25,26,26,27,27,28,28,29,29,33,33,37,37,38,38,39,39,40,40,41,41,42,42,44,44,45,45,46,46,47,47,48,48,49,49,51,51,52,52],"right_children":[2,4,6,8,10,12,14,-1,16,18,20,22,24,26,28,30,32,34,-1,-1,36,38,40,42,44,46,48,50,52,54,-1,-1,-1,56,-1,-1,-1,58,60,62,64,66,68,-1,70,72,74,76,78,80,-1,82,84,-1,-1,-1,-1,-1,-1,-1,-1,-1,-1,-1,-1,-1,-1,-1,-1,-1,-1,-1,-1,-1,-1,-1,-1,-1,-1,-1,-1,-1,-1,-1,-1],"split_conditions":[7.941596E0,7.9374857E0,3E0,7.932319E0,2.7E1,5.859375E-3,1.3E1,-7.659802E-2,2.9E1,7.3242188E-3,1.2352637E2,1.2912085E2,6.591797E-3,7E0,1.2463721E2,8.300781E-3,1.2212915E2,7.8125E-3,6.97965E-2,-3.8631395E-2,5.3710938E-3,1E0,1.3114502E2,3.1738281E-3,1.2487573E2,4E0,6.1035156E-3,2.7E1,6.1035156E-3,5.3710938E-3,5.9959818E-2,-4.6487123E-2,6.865691E-2,4.1503906E-3,6.3827954E-2,7.37386E-2,2.1331875E-2,6.8359375E-3,5.6152344E-3,7.950342E0,4.638672E-3,5.126953E-3,2.4414062E-3,6.8995007E-3,2.1972656E-3,5.6152344E-3,1.24986084E2,3.4179688E-3,3.1738281E-3,3.90625E-3,6.321817E-2,1.953125E-3,1.26276855E2,-7.4590124E-2,-2.135145E-2,-6.556967E-2,-2.8312022E-2,4.6086304E-2,-3.2381292E-2,2.440447E-2,6.2452395E-2,-5.735872E-3,2.4994258E-2,-7.687869E-2,2.0755423E-2,4.5719825E-2,-4.3323807E-2,1.13320155E-2,6.5741085E-2,8.8905385E-3,7.529258E-2,-2.1915162E-2,3.7054252E-2,-5.265239E-2,2.7055312E-2,7.293254E-2,7.2397976E-3,-1.1066177E-2,-4.897719E-2,-9.253025E-3,-7.1827725E-2,-3.6232078E-3,7.221669E-2,-5.440733E-2,4.2978745E-2],"split_indices":[256,256,261,256,261,208,261,0,261,32,257,257,208,261,257,32,257,208,0,0,72,261,257,32,257,261,0,261,64,47,0,0,0,246,0,0,0,33,72,256,81,159,209,0,32,72,257,206,90,26,0,241,257,0,0,0,0,0,0,0,0,0,0,0,0,0,0,0,0,0,0,0,0,0,0,0,0,0,0,0,0,0,0,0,0],"split_type":[0,0,0,0,0,0,0,0,0,0,0,0,0,0,0,0,0,0,0,0,0,0,0,0,0,0,0,0,0,0,0,0,0,0,0,0,0,0,0,0,0,0,0,0,0,0,0,0,0,0,0,0,0,0,0,0,0,0,0,0,0,0,0,0,0,0,0,0,0,0,0,0,0,0,0,0,0,0,0,0,0,0,0,0,0],"sum_hessian":[7.5814243E3,2.3982822E3,5.183142E3,2.279434E3,1.1884814E2,4.1106553E3,1.0724868E3,2.1354197E3,1.440144E2,1.0319162E2,1.5656517E1,3.4595515E3,6.5110376E2,9.383224E2,1.341644E2,1.3607498E2,7.9394217E0,9.774979E1,5.4418335E0,1.9157225E0,1.3740795E1,3.1376455E3,3.2190604E2,2.2773376E2,4.2336996E2,4.7763287E2,4.606895E2,2.2354881E1,1.11809525E2,1.3323802E2,2.8369634E0,1.2104158E0,6.729006E0,9.378063E1,3.9691563E0,1.2570558E1,1.1702371E0,2.6264453E3,5.1120023E2,3.0902948E2,1.2876535E1,2.724523E1,2.0048854E2,1.2426307E0,4.2212735E2,2.1308012E2,2.6455273E2,2.0108358E1,4.4058115E2,1.9919365E1,2.4355166E0,1.0791855E2,3.8909736E0,1.2908752E2,4.1504984E0,6.6727455E1,2.7053175E1,2.6165195E3,9.925947E0,4.46303E2,6.48972E1,6.9994896E1,2.3903459E2,1.0135928E1,2.740607E0,2.4399557E1,2.8456738E0,5.8948665E0,1.9459367E2,1.2472403E0,4.208801E2,1.8522728E2,2.7852848E1,2.235547E1,2.4219728E2,6.9205365E0,1.3187822E1,5.6627125E1,3.83954E2,5.935482E0,1.3983882E1,1.6439034E0,1.0627465E2,1.7054573E0,2.185516E0],"tree_param":{"num_deleted":"0","num_feature":"262","num_nodes":"85","size_leaf_vector":"1"}},{"base_weights":[-4.759388E-4,-1.4443287E0,6.457055E-1,-1.475758E0,-6.307251E-1,8.630832E-1,-1.7510808E-1,-1.4919933E0,-1.2267547E0,-1.05296E0,3.9325434E-1,7.6041955E-1,1.3160233E0,-3.308125E-1,9.7388846E-1,-7.4622415E-2,-2.7314095E-2,-1.3589296E0,9.269645E-1,-1.1359518E0,5.2681863E-2,-1.0786202E0,1.1175319E0,8.114247E-1,2.5916836E-1,1.1026579E0,1.4360276E0,2.8201437E-2,-8.434682E-1,-1.0242624E0,1.2896134E0,-1.4216187E0,5.8394518E-2,-4.5437634E-2,6.681955E-2,1.3680792E-1,-1.2228345E0,7.3049543E-4,-6.8643734E-2,1.4191234E0,-3.941852E-2,8.379384E-1,2.0919695E-1,3.4278786E-1,-7.0730346E-1,1.1155437E0,-4.924504E-2,5.0984716E-1,1.4433632E0,-1.5821613E-1,6.723671E-1,-1.3680356E0,-7.338948E-1,-1.2492754E0,4.792135E-2,1.3354027E0,6.677792E-2,-7.210924E-2,-5.20778E-3,6.528599E-2,-3.146218E-2,2.5840124E-2,-6.343984E-2,7.575374E-2,6.315864E-3,4.0337007E-2,5.9266776E-2,-5.3532492E-2,2.4454838E-2,-4.953795E-3,2.428647E-2,1.067125E-2,-6.786192E-2,5.6894835E-2,2.4652E-3,-4.7246613E-2,5.7466824E-2,7.244239E-2,2.6727622E-2,7.3327706E-3,-1.9011123E-2,4.5813993E-2,6.130848E-3,1.3357452E-2,-7.166966E-2,-2.6035667E-3,-4.375833E-2,-9.921319E-3,-7.091179E-2,1.1932241E-2,6.998948E-2,-3.923111E-2,4.1730247E-2],"categories":[],"categories_nodes":[],"categories_segments":[],"categories_sizes":[],"default_left":[0,0,0,0,0,0,0,0,0,0,0,0,0,0,0,0,0,0,0,0,0,0,0,0,0,0,0,0,0,0,0,0,0,0,0,0,0,0,0,0,0,0,0,0,0,0,0,0,0,0,0,0,0,0,0,0,0,0,0,0,0,0,0,0,0,0,0,0,0,0,0,0,0,0,0,0,0,0,0,0,0,0,0,0,0,0,0,0,0,0,0,0,0],"id":8,"left_children":[1,3,5,7,9,11,13,15,17,19,21,23,25,27,29,-1,-1,31,33,35,-1,37,39,41,43,45,47,49,51,53,55,57,-1,-1,-1,59,61,-1,-1,63,-1,65,67,69,71,73,-1,75,77,79,81,83,85,87,-1,89,91,-1,-1,-1,-1,-1,-1,-1,-1,-1,-1,-1,-1,-1,-1,-1,-1,-1,-1,-1,-1,-1,-1,-1,-1,-1,-1,-1,-1,-1,-1,-1,-1,-1,-1,-1,-1],"loss_changes":[6.979872E3,5.8214844E1,9.2229614E2,7.1689453E0,3.8363613E1,1.8901172E2,1.9406717E2,8.154297E-2,4.165164E1,1.2109573E1,2.9300154E1,8.501697E1,1.7714478E1,1.756929E2,8.30147E1,0E0,0E0,2.2901031E1,7.827651E0,6.8612137E0,0E0,2.979683E0,1.1553713E1,4.812915E1,2.5242832E1,8.512695E0,2.518982E0,6.7631386E1,2.1593475E1,9.328835E0,6.1970367E0,3.4072876E0,0E0,0E0,0E0,5.09073E0,5.1946335E0,0E0,0E0,1.797184E0,0E0,3.0445557E1,4.6701042E1,1.8073524E1,1.5226175E1,6.4835815E0,0E0,6.0266333E0,1.591919E0,2.9627869E1,1.683643E1,7.519226E0,3.148761E1,2.702011E0,0E0,7.304077E0,3.9919991E0,0E0,0E0,0E0,0E0,0E0,0E0,0E0,0E0,0E0,0E0,0E0,0E0,0E0,0E0,0E0,0E0,0E0,0E0,0E0,0E0,0E0,0E0,0E0,0E0,0E0,0E0,0E0,0E0,0E0,0E0,0E0,0E0,0E0,0E0,0E0,0E0],"parents":[2147483647,0,0,1,1,2,2,3,3,4,4,5,5,6,6,7,7,8,8,9,9,10,10,11,11,12,12,13,13,14,14,17,17,18,18,19,19,21,21,22,22,23,23,24,24,25,25,26,26,27,27,28,28,29,29,30,30,31,31,35,35,36,36,39,39,41,41,42,42,43,43,44,44,45,45,47,47,48,48,49,49,50,50,51,51,52,52,53,53,55,55,56,56],"right_children":[2,4,6,8,10,12,14,16,18,20,22,24,26,28,30,-1,-1,32,34,36,-1,38,40,42,44,46,48,50,52,54,56,58,-1,-1,-1,60,62,-1,-1,64,-1,66,68,70,72,74,-1,76,78,80,82,84,86,88,-1,90,92,-1,-1,-1,-1,-1,-1,-1,-1,-1,-1,-1,-1,-1,-1,-1,-1,-1,-1,-1,-1,-1,-1,-1,-1,-1,-1,-1,-1,-1,-1,-1,-1,-1,-1,-1,-1],"split_conditions":[7.9406133E0,7.9374857E0,3E0,7.932319E0,3.715E2,5.6152344E-3,1.4E1,1.977539E-2,2.9E1,7.8125E-3,1.24352295E2,1.2912085E2,6.3476562E-3,7.5683594E-3,1.24352295E2,-7.4622415E-2,-2.7314095E-2,8.300781E-3,1.2212915E2,2.4414062E-3,5.2681863E-2,4.1503906E-3,9.521484E-3,6.3476562E-3,1.3074268E2,1.3114502E2,2.4414062E-3,5.126953E-3,1.2487573E2,2.7E1,6.1035156E-3,5.859375E-3,5.8394518E-2,-4.5437634E-2,6.681955E-2,2.9296875E-3,2.1972656E-3,7.3049543E-4,-6.8643734E-2,5.6152344E-3,-3.941852E-2,5.6152344E-3,7.9467134E0,7.950702E0,3.90625E-3,6.1035156E-3,-4.924504E-2,3.1738281E-3,6.8359375E-3,4.1503906E-3,4.638672E-3,2.1972656E-3,7E0,3.6621094E-3,4.792135E-2,1.24770996E2,1.2559912E2,-7.210924E-2,-5.20778E-3,6.528599E-2,-3.146218E-2,2.5840124E-2,-6.343984E-2,7.575374E-2,6.315864E-3,4.0337007E-2,5.9266776E-2,-5.3532492E-2,2.4454838E-2,-4.953795E-3,2.428647E-2,1.067125E-2,-6.786192E-2,5.6894835E-2,2.4652E-3,-4.7246613E-2,5.7466824E-2,7.244239E-2,2.6727622E-2,7.3327706E-3,-1.9011123E-2,4.5813993E-2,6.130848E-3,1.3357452E-2,-7.166966E-2,-2.6035667E-3,-4.375833E-2,-9.921319E-3,-7.091179E-2,1.1932241E-2,6.998948E-2,-3.923111E-2,4.1730247E-2],"split_indices":[256,256,261,256,260,208,261,150,261,208,257,257,208,0,257,0,0,32,257,164,0,52,255,0,257,257,209,72,257,261,64,248,0,0,0,88,166,0,0,152,0,32,256,256,63,76,0,60,0,1,4,229,261,26,0,257,257,0,0,0,0,0,0,0,0,0,0,0,0,0,0,0,0,0,0,0,0,0,0,0,0,0,0,0,0,0,0,0,0,0,0,0,0],"split_type":[0,0,0,0,0,0,0,0,0,0,0,0,0,0,0,0,0,0,0,0,0,0,0,0,0,0,0,0,0,0,0,0,0,0,0,0,0,0,0,0,0,0,0,0,0,0,0,0,0,0,0,0,0,0,0,0,0,0,0,0,0,0,0,0,0,0,0,0,0,0,0,0,0,0,0,0,0,0,0,0,0,0,0,0,0,0,0,0,0,0,0,0,0],"sum_hessian":[7.47918E3,2.3119763E3,5.167204E3,2.2252031E3,8.6773E1,4.085248E3,1.0819559E3,2.0843118E3,1.4089148E2,6.1418827E1,2.535418E1,3.332566E3,7.5268207E2,9.534613E2,1.284947E2,2.0827317E3,1.5801046E0,1.3309254E2,7.798934E0,5.9534176E1,1.8846498E0,8.200307E0,1.7153873E1,3.024216E3,3.083497E2,2.7461316E2,4.780689E2,5.613156E2,3.9214563E2,1.72267E1,1.11268005E2,1.3029733E2,2.795219E0,1.1998179E0,6.599116E0,3.7675807E0,5.5766594E1,1.9406489E0,6.259658E0,1.5030795E1,2.1230786E0,2.8963115E3,1.2790472E2,2.8438953E2,2.3960173E1,2.7339124E2,1.2219397E0,4.310657E0,4.7375824E2,4.3591803E2,1.25397606E2,6.577446E1,3.263712E2,1.580313E1,1.42357E0,1.0716321E2,4.104798E0,1.282014E2,2.095933E0,1.2126808E0,2.5549E0,1.1717725E0,5.4594822E1,1.3832246E1,1.1985488E0,2.6606882E3,2.356232E2,2.2445795E1,1.0545892E2,6.958716E1,2.1480237E2,1.0192549E1,1.3767624E1,2.6771167E2,5.6795726E0,1.170421E0,3.1402361E0,4.7032565E2,3.4325857E0,1.8382233E2,2.5209572E2,8.639793E1,3.8999683E1,2.4092743E0,6.336519E1,5.625154E1,2.7011963E2,2.4901338E0,1.3312996E1,6.2033076E0,1.009599E2,1.9360963E0,2.1687016E0],"tree_param":{"num_deleted":"0","num_feature":"262","num_nodes":"93","size_leaf_vector":"1"}},{"base_weights":[-5.9390196E-4,-1.3950821E0,6.2549305E-1,-1.439785E0,-5.5282766E-1,8.3312273E-1,-1.6432792E-1,-1.4558742E0,-1.1936054E0,-8.037148E-1,1.0659642E0,7.336593E-1,1.2776237E0,-3.2038915E-1,9.5228463E-1,-7.281622E-2,-2.6622185E-2,-1.3247797E0,8.685361E-1,-9.33836E-1,6.635716E-2,-4.601466E-2,1.3167976E0,7.8254724E-1,2.5483662E-1,1.0981023E0,1.4217167E0,9.3366705E-2,-7.5366557E-1,-7.300696E-1,1.2960757E0,-1.3829048E0,7.8177077E-1,-4.2101633E-2,1.2310526E0,-1.0356144E0,6.0571767E-2,4.02549E-3,7.079933E-2,8.338169E-1,5.22246E-1,3.32209E-1,-6.559673E-1,1.1085689E0,-4.8071217E-2,4.9808025E-3,1.4255145E0,-1.7410186E-1,5.0087476E-1,6.171064E-1,-8.182388E-1,-1.0186733E0,6.0721613E-2,1.3456503E0,-4.7635995E-2,-7.048425E-2,-9.175869E-4,5.0180525E-2,5.3054984E-3,8.613947E-3,6.906166E-2,-6.500601E-2,-3.152481E-2,4.1998994E-2,-3.2286584E-2,1.4247592E-2,4.0094417E-2,2.8772999E-2,3.843472E-3,1.2444181E-2,-6.4878546E-2,9.60071E-3,5.683258E-2,1.496191E-2,7.151347E-2,2.0211494E-2,-1.8581413E-2,3.2663525E-3,4.559063E-2,2.911095E-3,6.5179855E-2,-8.995342E-3,-4.5624703E-2,2.0559324E-2,-6.038489E-2,-5.0491947E-3,6.8585955E-2,-5.20157E-2,4.0538784E-2],"categories":[],"categories_nodes":[],"categories_segments":[],"categories_sizes":[],"default_left":[0,0,0,0,0,0,0,0,0,0,0,0,0,0,0,0,0,0,0,0,0,0,0,0,0,0,0,0,0,0,0,0,0,0,0,0,0,0,0,0,0,0,0,0,0,0,0,0,0,0,0,0,0,0,0,0,0,0,0,0,0,0,0,0,0,0,0,0,0,0,0,0,0,0,0,0,0,0,0,0,0,0,0,0,0,0,0,0,0],"id":9,"left_children":[1,3,5,7,9,11,13,15,17,19,21,23,25,27,29,-1,-1,31,33,35,-1,-1,37,39,41,43,45,47,49,51,53,55,57,-1,59,61,-1,-1,-1,63,65,67,69,71,-1,-1,73,75,77,79,81,83,-1,85,87,-1,-1,-1,-1,-1,-1,-1,-1,-1,-1,-1,-1,-1,-1,-1,-1,-1,-1,-1,-1,-1,-1,-1,-1,-1,-1,-1,-1,-1,-1,-1,-1,-1,-1],"loss_changes":[6.438486E3,8.523877E1,8.347637E2,6.854492E0,4.8289093E1,1.7724536E2,1.850668E2,6.933594E-2,3.864882E1,2.9434425E1,9.233969E0,7.6947266E1,1.7466553E1,1.6697108E2,7.6289505E1,0E0,0E0,1.7088242E1,6.5522738E0,2.2307816E1,0E0,0E0,1.6895313E0,3.94657E1,2.1838217E1,8.220581E0,1.8897095E0,5.209083E1,4.076889E1,1.4000233E1,7.293289E0,4.6363525E0,5.1542187E-1,0E0,9.9362755E-1,9.102371E0,0E0,0E0,0E0,2.3303467E1,3.2596085E1,1.756061E1,1.4464005E1,8.293793E0,0E0,0E0,1.7324219E0,3.314094E1,3.382584E1,7.994298E0,2.5998901E1,5.9960785E0,0E0,4.086792E0,4.9568434E0,0E0,0E0,0E0,0E0,0E0,0E0,0E0,0E0,0E0,0E0,0E0,0E0,0E0,0E0,0E0,0E0,0E0,0E0,0E0,0E0,0E0,0E0,0E0,0E0,0E0,0E0,0E0,0E0,0E0,0E0,0E0,0E0,0E0,0E0],"parents":[2147483647,0,0,1,1,2,2,3,3,4,4,5,5,6,6,7,7,8,8,9,9,10,10,11,11,12,12,13,13,14,14,17,17,18,18,19,19,22,22,23,23,24,24,25,25,26,26,27,27,28,28,29,29,30,30,31,31,32,32,34,34,35,35,39,39,40,40,41,41,42,42,43,43,46,46,47,47,48,48,49,49,50,50,51,51,53,53,54,54],"right_children":[2,4,6,8,10,12,14,16,18,20,22,24,26,28,30,-1,-1,32,34,36,-1,-1,38,40,42,44,46,48,50,52,54,56,58,-1,60,62,-1,-1,-1,64,66,68,70,72,-1,-1,74,76,78,80,82,84,-1,86,88,-1,-1,-1,-1,-1,-1,-1,-1,-1,-1,-1,-1,-1,-1,-1,-1,-1,-1,-1,-1,-1,-1,-1,-1,-1,-1,-1,-1,-1,-1,-1,-1,-1,-1],"split_conditions":[7.941596E0,7.9374857E0,3E0,7.932319E0,2.7E1,5.6152344E-3,1.3E1,1.977539E-2,4.285E2,7.3242188E-3,1.23204346E2,1.2912085E2,6.591797E-3,7E0,1.2463721E2,-7.281622E-2,-2.6622185E-2,2.9E1,1.2212915E2,7.8125E-3,6.635716E-2,-4.601466E-2,2.6855469E-3,1E0,1.3074268E2,1.3114502E2,1.2487573E2,4.3945312E-3,6.1035156E-3,2.7E1,6.1035156E-3,6.1035156E-3,4.3945312E-3,-4.2101633E-2,2.9296875E-3,7.392376E1,6.0571767E-2,4.02549E-3,7.079933E-2,6.8359375E-3,4.3945312E-3,3.90625E-3,3.90625E-3,2.4414062E-3,-4.8071217E-2,4.9808025E-3,1.7089844E-3,3.6621094E-3,4.3945312E-3,4.1503906E-3,3.1738281E-3,3.4179688E-3,6.0721613E-2,2.1972656E-3,1.26276855E2,-7.048425E-2,-9.175869E-4,5.0180525E-2,5.3054984E-3,8.613947E-3,6.906166E-2,-6.500601E-2,-3.152481E-2,4.1998994E-2,-3.2286584E-2,1.4247592E-2,4.0094417E-2,2.8772999E-2,3.843472E-3,1.2444181E-2,-6.4878546E-2,9.60071E-3,5.683258E-2,1.496191E-2,7.151347E-2,2.0211494E-2,-1.8581413E-2,3.2663525E-3,4.559063E-2,2.911095E-3,6.5179855E-2,-8.995342E-3,-4.5624703E-2,2.0559324E-2,-6.038489E-2,-5.0491947E-3,6.8585955E-2,-5.20157E-2,4.0538784E-2],"split_indices":[256,256,261,256,261,208,261,150,260,32,257,257,208,261,257,0,0,261,257,208,0,0,125,261,257,257,257,139,0,261,64,204,5,0,40,258,0,0,0,33,72,31,63,209,0,0,72,1,72,208,90,166,0,67,257,0,0,0,0,0,0,0,0,0,0,0,0,0,0,0,0,0,0,0,0,0,0,0,0,0,0,0,0,0,0,0,0,0,0],"split_type":[0,0,0,0,0,0,0,0,0,0,0,0,0,0,0,0,0,0,0,0,0,0,0,0,0,0,0,0,0,0,0,0,0,0,0,0,0,0,0,0,0,0,0,0,0,0,0,0,0,0,0,0,0,0,0,0,0,0,0,0,0,0,0,0,0,0,0,0,0,0,0,0,0,0,0,0,0,0,0,0,0,0,0,0,0,0,0,0,0],"sum_hessian":[7.3725283E3,2.28404E3,5.0884883E3,2.1682502E3,1.1578991E2,4.0292231E3,1.0592649E3,2.0306248E3,1.3762547E2,1.0068832E2,1.5101588E1,3.2946492E3,7.345741E2,9.2999854E2,1.2926642E2,2.0290582E3,1.566451E0,1.2973077E2,7.894698E0,9.542305E1,5.265268E0,1.394008E0,1.3707581E1,2.9888523E3,3.0579675E2,3.309161E2,4.0365796E2,4.7611682E2,4.5388168E2,2.174294E1,1.07523476E2,1.2658158E2,3.149185E0,1.1492257E0,6.7454724E0,9.1594765E1,3.8282871E0,1.1526519E0,1.2554929E1,2.4951897E3,4.9366272E2,2.8243893E2,2.335781E1,3.297023E2,1.2138096E0,1.2341864E0,4.024238E2,2.8779492E2,1.883219E2,2.0034266E1,4.3384744E2,1.9347504E1,2.3954375E0,1.0369627E2,3.827197E0,1.2411272E2,2.46887E0,2.0053816E0,1.1438035E0,1.1046718E0,5.6408005E0,5.407767E1,3.7517094E1,2.4852698E3,9.919874E0,2.6814435E2,2.2551839E2,1.4400137E2,1.3843758E2,9.944797E0,1.3413013E1,1.0034583E1,3.1966772E2,1.9605205E0,4.0046326E2,7.300355E1,2.1479138E2,9.1986046E1,9.633585E1,1.1641512E1,8.392755E0,5.619339E1,3.7765405E2,2.1218247E0,1.722568E1,1.7846801E0,1.019116E2,1.6765306E0,2.1506665E0],"tree_param":{"num_deleted":"0","num_feature":"262","num_nodes":"89","size_leaf_vector":"1"}},{"base_weights":[-6.8146735E-4,-1.3760004E0,5.9466153E-1,-1.4070437E0,-5.894972E-1,7.961523E-1,-1.5993892E-1,-1.4230963E0,-1.1622454E0,-8.2797843E-1,9.894146E-1,7.069864E-1,1.2876639E0,-3.016083E-1,9.2012966E-1,-7.117722E-2,-2.5951734E-2,-1.2892911E0,8.7651265E-1,-9.678146E-1,6.0979128E-2,-4.1728348E-2,1.2697041E0,7.393485E-1,2.1380916E-2,1.0981648E0,1.3884474E0,3.126931E-2,-7.8312397E-1,-9.683359E-1,1.2209826E0,-1.3505763E0,5.599282E-2,-4.39389E-2,6.391405E-2,-1.035049E0,5.000737E-2,6.7021206E-2,1.7629972E-2,-1.966299E-1,7.54451E-1,-5.4594314E-1,2.4706252E-1,1.1439363E0,3.619595E-1,4.8447642E-3,1.3922328E0,-1.1534844E-1,7.469542E-1,6.405281E-2,-8.4849596E-1,-1.1845268E0,4.549193E-2,1.2655236E0,6.2404644E-2,-6.9121055E-2,-1.5843699E-2,-6.5446354E-2,-2.8340667E-2,4.082687E-2,-4.442049E-2,3.4064796E-2,4.652264E-2,-5.729741E-2,-3.4624822E-3,1.3726329E-3,4.3771382E-2,5.9083074E-2,1.7428255E-2,4.1995645E-2,-4.0571775E-2,6.985196E-2,1.3467302E-2,2.4512745E-3,-2.4652913E-2,2.1789718E-2,6.0523678E-2,-2.2336967E-2,3.0345917E-2,-6.868556E-2,-3.6850262E-2,-8.037827E-3,-6.786648E-2,1.1066425E-2,6.647226E-2,5.043679E-2,-2.9714689E-2],"categories":[],"categories_nodes":[],"categories_segments":[],"categories_sizes":[],"default_left":[0,0,0,0,0,0,0,0,0,0,0,0,0,0,0,0,0,0,0,0,0,0,0,0,0,0,0,0,0,0,0,0,0,0,0,0,0,0,0,0,0,0,0,0,0,0,0,0,0,0,0,0,0,0,0,0,0,0,0,0,0,0,0,0,0,0,0,0,0,0,0,0,0,0,0,0,0,0,0,0,0,0,0,0,0,0,0],"id":10,"left_children":[1,3,5,7,9,11,13,15,17,19,21,23,25,27,29,-1,-1,31,33,35,-1,-1,37,39,41,43,45,47,49,51,53,55,-1,-1,-1,57,-1,-1,-1,59,61,63,65,67,69,-1,71,73,75,77,79,81,-1,83,85,-1,-1,-1,-1,-1,-1,-1,-1,-1,-1,-1,-1,-1,-1,-1,-1,-1,-1,-1,-1,-1,-1,-1,-1,-1,-1,-1,-1,-1,-1,-1,-1],"loss_changes":[5.9473022E3,5.274707E1,7.7087646E2,6.63916E0,3.2841434E1,1.7444092E2,1.6386957E2,6.1523438E-2,3.6180435E1,2.2490807E1,6.9977846E0,7.517578E1,1.018573E1,1.516419E2,7.1758804E1,0E0,0E0,2.037976E1,7.1411357E0,1.0327339E1,0E0,0E0,2.0607185E-1,4.5893066E1,1.982442E1,6.920807E0,1.8035889E0,5.8873634E1,2.1469116E1,8.235493E0,5.4733124E0,3.6790466E0,0E0,0E0,0E0,8.029526E0,0E0,0E0,0E0,3.729835E1,4.0373657E1,1.2527383E1,1.5252896E1,5.723175E0,8.647387E0,0E0,1.756897E0,2.8946823E1,1.3230766E1,8.209994E0,2.0012085E1,2.6553173E0,0E0,6.617935E0,3.7285805E0,0E0,0E0,0E0,0E0,0E0,0E0,0E0,0E0,0E0,0E0,0E0,0E0,0E0,0E0,0E0,0E0,0E0,0E0,0E0,0E0,0E0,0E0,0E0,0E0,0E0,0E0,0E0,0E0,0E0,0E0,0E0,0E0],"parents":[2147483647,0,0,1,1,2,2,3,3,4,4,5,5,6,6,7,7,8,8,9,9,10,10,11,11,12,12,13,13,14,14,17,17,18,18,19,19,22,22,23,23,24,24,25,25,26,26,27,27,28,28,29,29,30,30,31,31,35,35,39,39,40,40,41,41,42,42,43,43,44,44,46,46,47,47,48,48,49,49,50,50,51,51,53,53,54,54],"right_children":[2,4,6,8,10,12,14,16,18,20,22,24,26,28,30,-1,-1,32,34,36,-1,-1,38,40,42,44,46,48,50,52,54,56,-1,-1,-1,58,-1,-1,-1,60,62,64,66,68,70,-1,72,74,76,78,80,82,-1,84,86,-1,-1,-1,-1,-1,-1,-1,-1,-1,-1,-1,-1,-1,-1,-1,-1,-1,-1,-1,-1,-1,-1,-1,-1,-1,-1,-1,-1,-1,-1,-1,-1],"split_conditions":[7.9406133E0,7.9374857E0,3E0,7.932319E0,2.9E1,5.859375E-3,1.4E1,1.977539E-2,2.9E1,7.3242188E-3,1.23204346E2,1.2965112E2,6.591797E-3,7.5683594E-3,1.24352295E2,-7.117722E-2,-2.5951734E-2,8.300781E-3,1.2212915E2,7.8125E-3,6.0979128E-2,-4.1728348E-2,5.126953E-3,1.24770996E2,3.1738281E-3,5.6152344E-3,1.2487573E2,5.3710938E-3,2.9296875E-3,2.7E1,6.1035156E-3,5.3710938E-3,5.599282E-2,-4.39389E-2,6.391405E-2,3.90625E-3,5.000737E-2,6.7021206E-2,1.7629972E-2,2.65875E2,4.638672E-3,3.4179688E-3,4.638672E-3,5.6152344E-3,4.638672E-3,4.8447642E-3,2E0,4.638672E-3,4.3945312E-3,4.1503906E-3,1.2487573E2,3.6621094E-3,4.549193E-2,1.24770996E2,3.6621094E-3,-6.9121055E-2,-1.5843699E-2,-6.5446354E-2,-2.8340667E-2,4.082687E-2,-4.442049E-2,3.4064796E-2,4.652264E-2,-5.729741E-2,-3.4624822E-3,1.3726329E-3,4.3771382E-2,5.9083074E-2,1.7428255E-2,4.1995645E-2,-4.0571775E-2,6.985196E-2,1.3467302E-2,2.4512745E-3,-2.4652913E-2,2.1789718E-2,6.0523678E-2,-2.2336967E-2,3.0345917E-2,-6.868556E-2,-3.6850262E-2,-8.037827E-3,-6.786648E-2,1.1066425E-2,6.647226E-2,5.043679E-2,-2.9714689E-2],"split_indices":[256,256,261,256,261,208,261,150,261,32,257,257,208,0,257,0,0,32,257,208,0,0,13,257,0,52,257,72,4,261,64,47,0,0,0,249,0,0,0,260,32,128,160,185,86,0,261,22,68,9,257,26,0,257,198,0,0,0,0,0,0,0,0,0,0,0,0,0,0,0,0,0,0,0,0,0,0,0,0,0,0,0,0,0,0,0,0],"split_type":[0,0,0,0,0,0,0,0,0,0,0,0,0,0,0,0,0,0,0,0,0,0,0,0,0,0,0,0,0,0,0,0,0,0,0,0,0,0,0,0,0,0,0,0,0,0,0,0,0,0,0,0,0,0,0,0,0,0,0,0,0,0,0,0,0,0,0,0,0,0,0,0,0,0,0,0,0,0,0,0,0,0,0,0,0,0,0],"sum_hessian":[7.261558E3,2.1933428E3,5.0682153E3,2.1092996E3,8.404317E1,4.0000742E3,1.0681407E3,1.974978E3,1.3432152E2,7.342808E1,1.0615086E1,3.3879072E3,6.12167E2,9.449193E2,1.2322149E2,1.9734253E3,1.5527577E0,1.2678829E2,7.5332336E0,6.9227585E1,4.2004976E0,1.1505269E0,9.464559E0,3.2351243E3,1.5278294E2,2.16669E2,3.95498E2,5.59243E2,3.8567633E2,1.6628033E1,1.0659346E2,1.2407149E2,2.7167988E0,1.1819826E0,6.351251E0,6.739899E1,1.8285996E0,8.358439E0,1.1061198E0,5.1180798E1,3.1839436E3,4.3076664E1,1.0970628E2,2.0346527E2,1.3203731E1,1.2334973E0,3.942645E2,4.648508E2,9.4392166E1,2.7630018E1,3.5804633E2,1.5242801E1,1.385232E0,1.0255834E2,4.0351186E0,1.20036255E2,4.0352373E0,4.1392464E1,2.600652E1,2.0693361E1,3.0487436E1,2.252545E3,9.313985E2,1.8450022E1,2.462664E1,8.206777E1,2.7638512E1,1.9378806E2,9.677215E0,9.584091E0,3.6196396E0,3.92341E2,1.9235051E0,3.2450226E2,1.4034856E2,5.7639225E1,3.6752937E1,1.432677E1,1.3303248E1,6.0713444E1,2.973329E2,2.4800463E0,1.2762754E1,6.173492E0,9.638485E1,1.4334223E0,2.601696E0],"tree_param":{"num_deleted":"0","num_feature":"262","num_nodes":"87","size_leaf_vector":"1"}},{"base_weights":[-7.806868E-4,-1.3329372E0,5.7661074E-1,-1.3772675E0,-5.20467E-1,7.6933014E-1,-1.498497E-1,-1.3932432E0,-1.1342729E0,-7.549214E-1,1.0104606E0,6.826087E-1,1.2555141E0,-2.9260024E-1,9.050235E-1,-6.968457E-2,-2.5301704E-2,-1.2612728E0,8.290863E-1,-8.7762773E-1,6.3323334E-2,-4.879136E-1,6.712881E-2,7.2924083E-1,2.3758592E-1,1.0673559E0,1.3569802E0,9.296845E-2,-7.0169187E-1,-8.7162066E-1,1.1953868E0,-1.3177106E0,7.3881626E-1,-4.019701E-2,1.17954E0,-9.7316283E-1,5.7725217E-2,-4.714241E-2,1.2051681E-2,7.8081334E-1,4.6771923E-1,2.930287E-1,-1.0247611E0,5.4246455E-1,1.1361512E0,3.4576E-3,1.3609252E0,-2.702901E-1,3.8591823E-1,5.9113026E-1,-7.633647E-1,4.9889613E-2,-1.0598878E0,1.2387071E0,6.0816914E-2,-6.725062E-2,7.8305503E-4,4.803134E-2,4.0458567E-3,6.633428E-2,7.609223E-3,-5.8971476E-2,-2.240208E-2,3.7508175E-2,5.530305E-2,1.8654676E-2,5.5560034E-2,2.1200014E-2,-8.937546E-3,-7.145486E-2,2.1705605E-2,3.7898883E-2,-4.8494015E-2,2.3649465E-2,5.9341628E-2,6.8417326E-2,2.3891283E-2,-2.038099E-2,3.168582E-2,-7.5542405E-2,2.3743927E-2,6.880142E-2,5.783231E-3,5.2272007E-3,-4.14821E-2,4.8402385E-4,-6.30218E-2,1.3173821E-2,6.4869575E-2,4.4821676E-2,-4.344308E-2],"categories":[],"categories_nodes":[],"categories_segments":[],"categories_sizes":[],"default_left":[0,0,0,0,0,0,0,0,0,0,0,0,0,0,0,0,0,0,0,0,0,0,0,0,0,0,0,0,0,0,0,0,0,0,0,0,0,0,0,0,0,0,0,0,0,0,0,0,0,0,0,0,0,0,0,0,0,0,0,0,0,0,0,0,0,0,0,0,0,0,0,0,0,0,0,0,0,0,0,0,0,0,0,0,0,0,0,0,0,0,0],"id":11,"left_children":[1,3,5,7,9,11,13,15,17,19,21,23,25,27,29,-1,-1,31,33,35,-1,37,-1,39,41,43,45,47,49,51,53,55,57,-1,59,61,-1,-1,-1,63,65,67,69,71,73,-1,75,77,79,81,83,-1,85,87,89,-1,-1,-1,-1,-1,-1,-1,-1,-1,-1,-1,-1,-1,-1,-1,-1,-1,-1,-1,-1,-1,-1,-1,-1,-1,-1,-1,-1,-1,-1,-1,-1,-1,-1,-1,-1],"loss_changes":[5.500305E3,7.716016E1,6.9854614E2,6.376953E0,4.149422E1,1.653855E2,1.5789392E2,5.7861328E-2,3.3916473E1,2.5662392E1,8.367587E0,6.931091E1,9.923645E0,1.4561664E2,6.553416E1,0E0,0E0,1.4995041E1,5.8772597E0,1.9354591E1,0E0,1.402999E0,0E0,4.050403E1,2.2630346E1,7.0882416E0,1.8531494E0,5.0750713E1,3.6158813E1,7.441886E0,5.226761E0,4.431885E0,5.132253E-1,0E0,9.313011E-1,9.24514E0,0E0,0E0,0E0,2.438684E1,3.0129227E1,1.9008755E1,8.669731E0,9.417238E0,5.748123E0,0E0,1.8500366E0,2.6708424E1,4.5242294E1,7.66102E0,2.4700073E1,0E0,3.6512241E0,5.6019897E0,4.6779723E0,0E0,0E0,0E0,0E0,0E0,0E0,0E0,0E0,0E0,0E0,0E0,0E0,0E0,0E0,0E0,0E0,0E0,0E0,0E0,0E0,0E0,0E0,0E0,0E0,0E0,0E0,0E0,0E0,0E0,0E0,0E0,0E0,0E0,0E0,0E0,0E0],"parents":[2147483647,0,0,1,1,2,2,3,3,4,4,5,5,6,6,7,7,8,8,9,9,10,10,11,11,12,12,13,13,14,14,17,17,18,18,19,19,21,21,23,23,24,24,25,25,26,26,27,27,28,28,29,29,30,30,31,31,32,32,34,34,35,35,39,39,40,40,41,41,42,42,43,43,44,44,46,46,47,47,48,48,49,49,50,50,52,52,53,53,54,54],"right_children":[2,4,6,8,10,12,14,16,18,20,22,24,26,28,30,-1,-1,32,34,36,-1,38,-1,40,42,44,46,48,50,52,54,56,58,-1,60,62,-1,-1,-1,64,66,68,70,72,74,-1,76,78,80,82,84,-1,86,88,90,-1,-1,-1,-1,-1,-1,-1,-1,-1,-1,-1,-1,-1,-1,-1,-1,-1,-1,-1,-1,-1,-1,-1,-1,-1,-1,-1,-1,-1,-1,-1,-1,-1,-1,-1,-1],"split_conditions":[7.941596E0,7.9374857E0,3E0,7.932319E0,2.7E1,5.859375E-3,1.3E1,1.977539E-2,4.285E2,7.3242188E-3,1.24352295E2,1.2912085E2,6.591797E-3,7E0,1.24352295E2,-6.968457E-2,-2.5301704E-2,2.9E1,1.2212915E2,7.8125E-3,6.3323334E-2,3.4179688E-3,6.712881E-2,1E0,1.3114502E2,3.1738281E-3,2.1972656E-3,4E0,6.1035156E-3,3.1738281E-3,6.1035156E-3,6.1035156E-3,4.1503906E-3,-4.019701E-2,7.5503334E1,4.1503906E-3,5.7725217E-2,-4.714241E-2,1.2051681E-2,5.6152344E-3,5.6152344E-3,4.8828125E-3,4.638672E-3,5.126953E-3,2.9296875E-3,3.4576E-3,6.3476562E-3,5.6152344E-3,1.2415796E2,3.4179688E-3,2.9296875E-3,4.9889613E-2,3.6621094E-3,1.24770996E2,3.90625E-3,-6.725062E-2,7.8305503E-4,4.803134E-2,4.0458567E-3,6.633428E-2,7.609223E-3,-5.8971476E-2,-2.240208E-2,3.7508175E-2,5.530305E-2,1.8654676E-2,5.5560034E-2,2.1200014E-2,-8.937546E-3,-7.145486E-2,2.1705605E-2,3.7898883E-2,-4.8494015E-2,2.3649465E-2,5.9341628E-2,6.8417326E-2,2.3891283E-2,-2.038099E-2,3.168582E-2,-7.5542405E-2,2.3743927E-2,6.880142E-2,5.783231E-3,5.2272007E-3,-4.14821E-2,4.8402385E-4,-6.30218E-2,1.3173821E-2,6.4869575E-2,4.4821676E-2,-4.344308E-2],"split_indices":[256,256,261,256,261,208,261,150,260,32,257,257,208,261,257,0,0,261,257,208,0,23,0,261,257,32,32,261,0,166,64,204,13,0,258,246,0,0,0,32,72,127,81,159,209,0,71,72,257,206,4,0,26,257,152,0,0,0,0,0,0,0,0,0,0,0,0,0,0,0,0,0,0,0,0,0,0,0,0,0,0,0,0,0,0,0,0,0,0,0,0],"split_type":[0,0,0,0,0,0,0,0,0,0,0,0,0,0,0,0,0,0,0,0,0,0,0,0,0,0,0,0,0,0,0,0,0,0,0,0,0,0,0,0,0,0,0,0,0,0,0,0,0,0,0,0,0,0,0,0,0,0,0,0,0,0,0,0,0,0,0,0,0,0,0,0,0,0,0,0,0,0,0,0,0,0,0,0,0,0,0,0,0,0,0],"sum_hessian":[7.148909E3,2.1612253E3,4.987684E3,2.048746E3,1.124792E2,3.941897E3,1.045787E3,1.9179183E3,1.3082773E2,9.798079E1,1.4498413E1,3.347247E3,5.9465E2,9.217711E2,1.24015915E2,1.9163793E3,1.5390586E0,1.2321516E2,7.6125774E0,9.29068E1,5.073984E0,2.5454113E0,1.1953002E1,3.0291917E3,3.1805545E2,2.1236348E2,3.8228653E2,4.7492615E2,4.4684497E2,1.7139948E1,1.0687596E2,1.20165535E2,3.0496194E0,1.1164062E0,6.496171E0,8.923287E1,3.673928E0,1.3865993E0,1.158812E0,2.5285679E3,5.0062354E2,3.054096E2,1.2645843E1,2.5637884E1,1.867256E2,1.2240405E0,3.8106247E2,2.1205486E2,2.6287128E2,1.9954836E1,4.2689014E2,1.1748009E0,1.5965148E1,1.0285689E2,4.01908E0,1.1774588E2,2.419658E0,1.9365642E0,1.1130552E0,5.427451E0,1.0687201E0,6.3172726E1,2.6060148E1,2.3138298E3,2.1473819E2,4.3782062E2,6.2802933E1,2.3912654E2,6.6283066E1,9.9175415E0,2.7283008E0,2.2876701E1,2.761184E0,1.3990728E1,1.7273486E2,3.7734192E2,3.7205613E0,1.845661E2,2.748876E1,1.1060548E1,2.5181073E2,6.813332E0,1.3141504E1,3.0245394E1,3.966447E2,2.6711326E0,1.3294015E1,6.149696E0,9.670719E1,2.135449E0,1.8836311E0],"tree_param":{"num_deleted":"0","num_feature":"262","num_nodes":"91","size_leaf_vector":"1"}},{"base_weights":[-8.572325E-4,-1.3311131E0,5.43558E-1,-1.3584292E0,-8.208715E-1,7.3224354E-1,-1.495496E-1,-1.3674827E0,-1.1817997E0,-1.0023553E0,9.5859194E-1,6.3628364E-1,1.1799536E0,-2.7931702E-1,8.1676644E-1,-6.8397015E-2,-2.4671135E-2,-1.3068764E0,1.0924393E0,-1.0987281E0,5.7641704E-2,1.2034955E0,-2.0009648E-2,-1.4962701E-1,6.6223735E-1,9.9814045E-1,1.3302834E0,3.2818433E-2,-7.315119E-1,-9.923438E-1,1.1676563E0,-1.342437E0,2.0463537E-2,7.658295E-2,-1.3781729E-2,-1.1397923E0,5.0068922E-2,6.333622E-2,1.8573128E-2,1.9152524E-1,-1.1678668E0,7.0194185E-1,2.4915034E-1,1.2394935E-1,1.0256529E0,2.8460475E-3,1.3342881E0,-1.6223119E-1,5.121281E-1,-1.2464163E0,-6.2153286E-1,-1.1923E0,2.9387668E-2,5.318404E-1,1.2591783E0,-6.808848E-2,-7.8094103E-3,-6.356152E-2,-2.877867E-2,-1.9425724E-3,6.320508E-2,-7.747984E-2,1.2913937E-3,3.7494816E-2,2.306022E-2,1.8439213E-2,-1.6874408E-2,3.3040974E-2,-6.49741E-2,5.233976E-2,-8.061736E-3,1.043566E-2,6.696542E-2,8.073135E-3,-1.8120987E-2,3.6397185E-2,1.2100427E-3,-2.961511E-2,-7.112648E-2,-2.4450212E-3,-3.729436E-2,-3.078929E-3,-6.5078E-2,-2.4139214E-2,5.672857E-2,6.494253E-2,-1.4871739E-2],"categories":[],"categories_nodes":[],"categories_segments":[],"categories_sizes":[],"default_left":[0,0,0,0,0,0,0,0,0,0,0,0,0,0,0,0,0,0,0,0,0,0,0,0,0,0,0,0,0,0,0,0,0,0,0,0,0,0,0,0,0,0,0,0,0,0,0,0,0,0,0,0,0,0,0,0,0,0,0,0,0,0,0,0,0,0,0,0,0,0,0,0,0,0,0,0,0,0,0,0,0,0,0,0,0,0,0],"id":12,"left_children":[1,3,5,7,9,11,13,15,17,19,21,23,25,27,29,-1,-1,31,33,35,-1,37,-1,39,41,43,45,47,49,51,53,55,-1,-1,-1,57,-1,-1,-1,59,61,63,65,67,69,-1,71,73,75,77,79,81,-1,83,85,-1,-1,-1,-1,-1,-1,-1,-1,-1,-1,-1,-1,-1,-1,-1,-1,-1,-1,-1,-1,-1,-1,-1,-1,-1,-1,-1,-1,-1,-1,-1,-1],"loss_changes":[5.094574E3,2.7358398E1,6.5292737E2,1.4821777E0,3.5302017E1,1.6782373E2,1.3427199E2,5.9570312E-2,3.039508E1,2.141066E1,3.92669E0,6.605139E1,1.7569397E1,1.3314592E2,8.165828E1,0E0,0E0,6.467926E0,3.939375E0,9.191452E0,0E0,4.0512085E-3,0E0,3.6413544E1,5.116504E1,7.4954834E0,1.8386841E0,5.2338463E1,2.1038925E1,7.3802605E0,5.537567E0,1.9716339E0,0E0,0E0,0E0,6.0927734E0,0E0,0E0,0E0,1.954378E1,1.2017792E1,3.261548E1,1.9496958E1,9.117904E0,7.8756104E0,0E0,1.8352051E0,2.5851265E1,1.70317E1,6.8528137E0,2.2708023E1,2.2790623E0,0E0,9.814926E0,6.099655E0,0E0,0E0,0E0,0E0,0E0,0E0,0E0,0E0,0E0,0E0,0E0,0E0,0E0,0E0,0E0,0E0,0E0,0E0,0E0,0E0,0E0,0E0,0E0,0E0,0E0,0E0,0E0,0E0,0E0,0E0,0E0,0E0],"parents":[2147483647,0,0,1,1,2,2,3,3,4,4,5,5,6,6,7,7,8,8,9,9,10,10,11,11,12,12,13,13,14,14,17,17,18,18,19,19,21,21,23,23,24,24,25,25,26,26,27,27,28,28,29,29,30,30,31,31,35,35,39,39,40,40,41,41,42,42,43,43,44,44,46,46,47,47,48,48,49,49,50,50,51,51,53,53,54,54],"right_children":[2,4,6,8,10,12,14,16,18,20,22,24,26,28,30,-1,-1,32,34,36,-1,38,-1,40,42,44,46,48,50,52,54,56,-1,-1,-1,58,-1,-1,-1,60,62,64,66,68,70,-1,72,74,76,78,80,82,-1,84,86,-1,-1,-1,-1,-1,-1,-1,-1,-1,-1,-1,-1,-1,-1,-1,-1,-1,-1,-1,-1,-1,-1,-1,-1,-1,-1,-1,-1,-1,-1,-1,-1],"split_conditions":[7.9395466E0,7.9352956E0,3E0,7.9314356E0,2.9E1,5.6152344E-3,1.4E1,1.977539E-2,4.4625E2,8.300781E-3,5.355989E-2,7.9453316E0,6.591797E-3,7.5683594E-3,1.24352295E2,-6.8397015E-2,-2.4671135E-2,3.2E1,4.8828125E-3,8.300781E-3,5.7641704E-2,5.126953E-3,-2.0009648E-2,6.1035156E-3,1.291709E2,2.4414062E-3,1.2487573E2,4.8828125E-3,1.2487573E2,2.9E1,1.25223145E2,7.3242188E-3,2.0463537E-2,7.658295E-2,-1.3781729E-2,4.1503906E-3,5.0068922E-2,6.333622E-2,1.8573128E-2,5.3710938E-3,7.407114E1,1E0,1.5764803E-2,4.3945312E-3,6.3476562E-3,2.8460475E-3,1.7089844E-3,3.90625E-3,4.638672E-3,3.90625E-3,7E0,3.4179688E-3,2.9387668E-2,2.2E1,6.1035156E-3,-6.808848E-2,-7.8094103E-3,-6.356152E-2,-2.877867E-2,-1.9425724E-3,6.320508E-2,-7.747984E-2,1.2913937E-3,3.7494816E-2,2.306022E-2,1.8439213E-2,-1.6874408E-2,3.3040974E-2,-6.49741E-2,5.233976E-2,-8.061736E-3,1.043566E-2,6.696542E-2,8.073135E-3,-1.8120987E-2,3.6397185E-2,1.2100427E-3,-2.961511E-2,-7.112648E-2,-2.4450212E-3,-3.729436E-2,-3.078929E-3,-6.5078E-2,-2.4139214E-2,5.672857E-2,6.494253E-2,-1.4871739E-2],"split_indices":[256,256,261,256,261,208,261,150,260,32,259,256,208,0,257,0,0,261,1,208,0,138,0,0,257,209,257,72,257,261,257,32,0,0,0,252,0,0,0,32,258,261,259,142,127,0,72,2,4,52,261,26,0,261,66,0,0,0,0,0,0,0,0,0,0,0,0,0,0,0,0,0,0,0,0,0,0,0,0,0,0,0,0,0,0,0,0],"split_type":[0,0,0,0,0,0,0,0,0,0,0,0,0,0,0,0,0,0,0,0,0,0,0,0,0,0,0,0,0,0,0,0,0,0,0,0,0,0,0,0,0,0,0,0,0,0,0,0,0,0,0,0,0,0,0,0,0,0,0,0,0,0,0,0,0,0,0,0,0,0,0,0,0,0,0,0,0,0,0,0,0,0,0,0,0,0,0],"sum_hessian":[7.0326504E3,2.0419025E3,4.990748E3,1.9365646E3,1.0533791E2,3.9227866E3,1.0679613E3,1.8357296E3,1.0083493E2,9.598528E1,9.3526325E0,3.2323933E3,6.903934E2,9.4215015E2,1.2581122E2,1.8342042E3,1.5253841E0,9.598157E1,4.853361E0,9.234607E1,3.6392105E0,8.021199E0,1.3314333E0,1.0318105E2,3.1292124E3,3.1593375E2,3.7445963E2,5.5794574E2,3.842044E2,2.0140936E1,1.0567028E2,9.424644E1,1.7351338E0,3.5833533E0,1.2700078E0,9.102352E1,1.3225515E0,6.969146E0,1.0520538E0,7.789494E1,2.5286106E1,2.8541794E3,2.750328E2,9.807649E0,3.061261E2,1.2216821E0,3.7323795E2,3.9703738E2,1.6090833E2,6.580106E1,3.1840335E2,1.809633E1,2.044606E0,1.41536875E1,9.1516594E1,9.2589516E1,1.656918E0,7.2809135E1,1.8214382E1,6.491562E1,1.2979328E1,1.89333E1,6.3528056E0,2.3783098E3,4.7586975E2,2.2875406E2,4.627874E1,7.510644E0,2.2970047E0,3.0088446E2,5.2416525E0,1.8463846E0,3.7139154E2,1.5179182E2,2.4524557E2,1.11221794E2,4.9686527E1,1.4883709E1,5.091735E1,5.705717E1,2.6134616E2,1.7323196E0,1.6364012E1,5.348739E0,8.804949E0,8.940361E1,2.1129837E0],"tree_param":{"num_deleted":"0","num_feature":"262","num_nodes":"87","size_leaf_vector":"1"}},{"base_weights":[-9.775889E-4,-1.3059005E0,5.221954E-1,-1.3334063E0,-7.970241E-1,7.041511E-1,-1.4318319E-1,-1.3425026E0,-1.1563895E0,-9.742246E-1,9.334097E-1,6.1901E-1,1.1979449E0,-2.7468088E-1,7.4248385E-1,-6.714823E-2,-2.4059137E-2,-1.280567E0,1.0584533E0,-1.0685452E0,5.6359082E-2,1.1763605E0,-1.9447079E-2,6.493366E-1,-3.380665E-3,1.0047907E0,1.3038875E0,1.3553388E-1,-6.043426E-1,-1.0779177E0,1.0950651E0,-1.3162347E0,1.987074E-2,7.443518E-2,-1.3409476E-2,-1.1091858E0,4.897826E-2,6.2013574E-2,1.769364E-2,6.754724E-1,5.9584595E-2,-2.84816E-1,4.2744026E-1,4.8049483E-1,1.0742706E0,1.3114825E0,4.2041668E-1,-6.730656E-2,6.1517555E-1,-1.8866467E-1,-7.468131E-1,-1.2316294E0,2.276786E-2,2.2512981E-1,1.1799581E0,-6.679048E-2,-7.570853E-3,-6.2030643E-2,-2.7693827E-2,3.0304546E-2,4.21306E-2,-5.033145E-2,1.7239204E-2,-2.0035146E-2,5.958947E-2,-3.3493012E-2,3.0351028E-2,3.4786772E-2,-4.8672702E-2,2.1410389E-2,5.6230552E-2,1.5390406E-3,6.578553E-2,4.9495496E-2,-4.038468E-2,-2.1151055E-2,1.0776678E-2,6.7129345E-3,4.2969342E-2,-5.6707334E-2,3.257539E-3,-7.1953023E-3,-4.178714E-2,-9.469895E-3,-6.642974E-2,-2.6244715E-2,5.852397E-2,6.162656E-2,-4.1382606E-3],"categories":[],"categories_nodes":[],"categories_segments":[],"categories_sizes":[],"default_left":[0,0,0,0,0,0,0,0,0,0,0,0,0,0,0,0,0,0,0,0,0,0,0,0,0,0,0,0,0,0,0,0,0,0,0,0,0,0,0,0,0,0,0,0,0,0,0,0,0,0,0,0,0,0,0,0,0,0,0,0,0,0,0,0,0,0,0,0,0,0,0,0,0,0,0,0,0,0,0,0,0,0,0,0,0,0,0,0,0],"id":13,"left_children":[1,3,5,7,9,11,13,15,17,19,21,23,25,27,29,-1,-1,31,33,35,-1,37,-1,39,41,43,45,47,49,51,53,55,-1,-1,-1,57,-1,-1,-1,59,61,63,65,67,69,71,73,75,77,79,81,83,-1,85,87,-1,-1,-1,-1,-1,-1,-1,-1,-1,-1,-1,-1,-1,-1,-1,-1,-1,-1,-1,-1,-1,-1,-1,-1,-1,-1,-1,-1,-1,-1,-1,-1,-1,-1],"loss_changes":[4.72299E3,2.6649658E1,5.979717E2,1.4697266E0,3.2803444E1,1.6229736E2,1.2380228E2,6.1279297E-2,2.8568314E1,2.000251E1,3.7256317E0,6.2473267E1,1.0338501E1,1.2514406E2,8.941339E1,0E0,0E0,6.157547E0,3.7100368E0,8.684387E0,0E0,2.589798E-2,0E0,4.8604614E1,1.8887568E1,6.987686E0,1.8928223E0,4.0210022E1,3.0235428E1,5.9365597E0,8.276001E0,1.9049377E0,0E0,0E0,0E0,5.879341E0,0E0,0E0,0E0,3.453296E1,4.1405403E1,1.659984E1,1.2536301E1,8.78673E0,5.4076843E0,1.9124146E0,4.000388E0,2.9375195E1,1.430788E1,3.1814528E1,2.034291E1,1.8707199E0,0E0,8.781755E0,7.0818024E0,0E0,0E0,0E0,0E0,0E0,0E0,0E0,0E0,0E0,0E0,0E0,0E0,0E0,0E0,0E0,0E0,0E0,0E0,0E0,0E0,0E0,0E0,0E0,0E0,0E0,0E0,0E0,0E0,0E0,0E0,0E0,0E0,0E0,0E0],"parents":[2147483647,0,0,1,1,2,2,3,3,4,4,5,5,6,6,7,7,8,8,9,9,10,10,11,11,12,12,13,13,14,14,17,17,18,18,19,19,21,21,23,23,24,24,25,25,26,26,27,27,28,28,29,29,30,30,31,31,35,35,39,39,40,40,41,41,42,42,43,43,44,44,45,45,46,46,47,47,48,48,49,49,50,50,51,51,53,53,54,54],"right_children":[2,4,6,8,10,12,14,16,18,20,22,24,26,28,30,-1,-1,32,34,36,-1,38,-1,40,42,44,46,48,50,52,54,56,-1,-1,-1,58,-1,-1,-1,60,62,64,66,68,70,72,74,76,78,80,82,84,-1,86,88,-1,-1,-1,-1,-1,-1,-1,-1,-1,-1,-1,-1,-1,-1,-1,-1,-1,-1,-1,-1,-1,-1,-1,-1,-1,-1,-1,-1,-1,-1,-1,-1,-1,-1],"split_conditions":[7.9395466E0,7.9352956E0,3E0,7.9314356E0,2.9E1,5.859375E-3,1.3E1,1.977539E-2,4.4625E2,8.300781E-3,5.355989E-2,1.2965112E2,6.591797E-3,6.8359375E-3,1.2415796E2,-6.714823E-2,-2.4059137E-2,3.2E1,4.8828125E-3,8.300781E-3,5.6359082E-2,4.8828125E-3,-1.9447079E-2,6.3476562E-3,7.9540606E0,3.1738281E-3,6.3476562E-3,4.8828125E-3,7E0,4.638672E-3,1.2487573E2,7.3242188E-3,1.987074E-2,7.443518E-2,-1.3409476E-2,4.1503906E-3,4.897826E-2,6.2013574E-2,1.769364E-2,4.638672E-3,7.9467134E0,5.3710938E-3,2.9296875E-3,5.126953E-3,2.9296875E-3,2.1972656E-3,4.3945312E-3,4E0,3.6621094E-3,1.24986084E2,3.1738281E-3,1.5510065E-2,2.276786E-2,2.3E1,6.1035156E-3,-6.679048E-2,-7.570853E-3,-6.2030643E-2,-2.7693827E-2,3.0304546E-2,4.21306E-2,-5.033145E-2,1.7239204E-2,-2.0035146E-2,5.958947E-2,-3.3493012E-2,3.0351028E-2,3.4786772E-2,-4.8672702E-2,2.1410389E-2,5.6230552E-2,1.5390406E-3,6.578553E-2,4.9495496E-2,-4.038468E-2,-2.1151055E-2,1.0776678E-2,6.7129345E-3,4.2969342E-2,-5.6707334E-2,3.257539E-3,-7.1953023E-3,-4.178714E-2,-9.469895E-3,-6.642974E-2,-2.6244715E-2,5.852397E-2,6.162656E-2,-4.1382606E-3],"split_indices":[256,256,261,256,261,208,261,150,260,32,259,257,208,0,257,0,0,261,1,208,0,68,0,0,256,32,71,72,261,243,257,32,0,0,0,252,0,0,0,32,256,128,143,159,209,32,29,261,36,257,90,259,0,261,64,0,0,0,0,0,0,0,0,0,0,0,0,0,0,0,0,0,0,0,0,0,0,0,0,0,0,0,0,0,0,0,0,0,0],"split_type":[0,0,0,0,0,0,0,0,0,0,0,0,0,0,0,0,0,0,0,0,0,0,0,0,0,0,0,0,0,0,0,0,0,0,0,0,0,0,0,0,0,0,0,0,0,0,0,0,0,0,0,0,0,0,0,0,0,0,0,0,0,0,0,0,0,0,0,0,0,0,0,0,0,0,0,0,0,0,0,0,0,0,0,0,0,0,0,0,0],"sum_hessian":[6.9161025E3,1.9788544E3,4.9372485E3,1.8758407E3,1.03013626E2,3.8769832E3,1.0602653E3,1.7778969E3,9.794382E1,9.384108E1,9.172545E0,3.3087366E3,5.682466E2,9.2379626E2,1.36469E2,1.7763851E3,1.5117611E0,9.3143456E1,4.800366E0,9.02804E1,3.5606823E0,7.8421397E0,1.3304055E0,3.1549646E3,1.5377194E2,2.0499142E2,3.6325516E2,4.1187198E2,5.119243E2,2.1809223E1,1.14659775E2,9.141588E1,1.7275789E0,3.532549E0,1.2678171E0,8.8973335E1,1.3070618E0,6.8053803E0,1.0367596E0,3.0209414E3,1.340232E2,9.321669E1,6.055525E1,2.4913065E1,1.8007837E2,3.596786E2,3.576555E0,2.9006372E2,1.2180827E2,1.312648E2,3.806595E2,2.0000858E1,1.8083642E0,1.0519004E1,1.0414077E2,8.976065E1,1.6552247E0,7.0947784E1,1.8025557E1,2.1380432E3,8.828982E2,2.7750149E1,1.0627305E2,8.710885E1,6.1078415E0,8.132513E0,5.2422733E1,2.2154787E1,2.7582788E0,1.3704366E1,1.66374E2,1.2107358E0,3.5846786E2,2.5759878E0,1.0005673E0,1.2826071E2,1.61803E2,4.154497E1,8.02633E1,2.704642E1,1.04218376E2,4.926705E1,3.3139243E2,1.9537932E0,1.8047066E1,6.1134553E0,4.4055486E0,1.0000117E2,4.139604E0],"tree_param":{"num_deleted":"0","num_feature":"262","num_nodes":"89","size_leaf_vector":"1"}},{"base_weights":[-1.0813083E-3,-1.2826484E0,5.01812E-1,-1.3103983E0,-7.743949E-1,6.772265E-1,-1.3715564E-1,-1.3195509E0,-1.1327448E0,-9.475484E-1,9.0952426E-1,5.846607E-1,1.1229417E0,-2.5530368E-1,7.771308E-1,-6.600094E-2,-2.3464905E-2,-1.256185E0,1.0264015E0,-1.0436229E0,1.0470877E0,1.1507858E0,-1.8901708E-2,-3.71656E-1,6.038101E-1,9.0475696E-1,1.254791E0,3.2489408E-2,-6.7903715E-1,-1.015218E0,1.0969253E0,-1.2920272E0,1.9296182E-2,7.2425246E-2,-1.30475955E-2,-1.0840598E0,4.7934376E-2,9.585454E-3,6.1248936E-2,1.67374E-2,6.0789626E-2,-5.953464E-1,7.159375E-2,6.4969265E-1,2.7085683E-1,9.3017226E-1,-1.8822072E-1,3.5854518E-1,1.2642958E0,-9.5065534E-2,6.6010463E-1,-1.1827581E0,-5.730901E-1,2.3570877E-2,-1.1978186E0,4.5156363E-1,1.2044423E0,-6.5594874E-2,-7.3395963E-3,-5.718219E-2,3.2392662E-4,-6.3311644E-2,-1.0057322E-2,3.499126E-2,2.0194858E-2,1.7539982E-2,-2.0070765E-2,4.7158793E-2,-4.7361966E-2,2.5978187E-2,-8.372416E-2,-4.4327073E-2,5.3869683E-2,6.3857235E-2,3.1406086E-2,4.42991E-3,-2.0047015E-2,1.8181745E-2,5.54095E-2,3.1980157E-2,-6.1727323E-2,-3.2755375E-2,1.3558052E-2,-3.286923E-3,-6.603374E-2,-2.352053E-2,5.4444768E-2,6.2273867E-2,-1.6375018E-2],"categories":[],"categories_nodes":[],"categories_segments":[],"categories_sizes":[],"default_left":[0,0,0,0,0,0,0,0,0,0,0,0,0,0,0,0,0,0,0,0,0,0,0,0,0,0,0,0,0,0,0,0,0,0,0,0,0,0,0,0,0,0,0,0,0,0,0,0,0,0,0,0,0,0,0,0,0,0,0,0,0,0,0,0,0,0,0,0,0,0,0,0,0,0,0,0,0,0,0,0,0,0,0,0,0,0,0,0,0],"id":14,"left_children":[1,3,5,7,9,11,13,15,17,19,21,23,25,27,29,-1,-1,31,33,35,37,39,-1,41,43,45,47,49,51,53,55,57,-1,-1,-1,59,-1,-1,-1,-1,-1,61,-1,63,65,67,69,71,73,75,77,79,81,-1,83,85,87,-1,-1,-1,-1,-1,-1,-1,-1,-1,-1,-1,-1,-1,-1,-1,-1,-1,-1,-1,-1,-1,-1,-1,-1,-1,-1,-1,-1,-1,-1,-1,-1],"loss_changes":[4.383065E3,2.601709E1,5.4753687E2,1.4580078E0,3.050645E1,1.5745837E2,1.1393086E2,6.542969E-2,2.6885078E1,1.8853424E1,3.5383034E0,5.8375122E1,1.7792175E1,1.1381598E2,7.031643E1,0E0,0E0,5.871689E0,3.4991522E0,8.239059E0,4.891734E-1,5.245018E-2,0E0,2.6250652E1,4.738745E1,7.159012E0,3.0181885E0,4.4626694E1,1.9467133E1,5.6679726E0,6.59848E0,1.8457031E0,0E0,0E0,0E0,5.701561E0,0E0,0E0,0E0,0E0,0E0,1.4744314E1,0E0,3.3427002E1,2.0498749E1,6.8958893E0,7.7551584E0,6.0321064E0,2.4908447E0,2.607476E1,1.2104439E1,6.8917465E0,2.190741E1,0E0,2.2811165E0,1.008997E1,5.916954E0,0E0,0E0,0E0,0E0,0E0,0E0,0E0,0E0,0E0,0E0,0E0,0E0,0E0,0E0,0E0,0E0,0E0,0E0,0E0,0E0,0E0,0E0,0E0,0E0,0E0,0E0,0E0,0E0,0E0,0E0,0E0,0E0],"parents":[2147483647,0,0,1,1,2,2,3,3,4,4,5,5,6,6,7,7,8,8,9,9,10,10,11,11,12,12,13,13,14,14,17,17,18,18,19,19,20,20,21,21,23,23,24,24,25,25,26,26,27,27,28,28,29,29,30,30,31,31,35,35,41,41,43,43,44,44,45,45,46,46,47,47,48,48,49,49,50,50,51,51,52,52,54,54,55,55,56,56],"right_children":[2,4,6,8,10,12,14,16,18,20,22,24,26,28,30,-1,-1,32,34,36,38,40,-1,42,44,46,48,50,52,54,56,58,-1,-1,-1,60,-1,-1,-1,-1,-1,62,-1,64,66,68,70,72,74,76,78,80,82,-1,84,86,88,-1,-1,-1,-1,-1,-1,-1,-1,-1,-1,-1,-1,-1,-1,-1,-1,-1,-1,-1,-1,-1,-1,-1,-1,-1,-1,-1,-1,-1,-1,-1,-1],"split_conditions":[7.9395466E0,7.9352956E0,3E0,7.9314356E0,2.9E1,5.6152344E-3,1.4E1,1.977539E-2,4.4625E2,4.12125E2,5.355989E-2,7.944193E0,6.3476562E-3,7.5683594E-3,1.2415796E2,-6.600094E-2,-2.3464905E-2,3.2E1,4.8828125E-3,8.300781E-3,3.6621094E-3,2.9296875E-3,-1.8901708E-2,3.6425E2,1.289231E2,6.1035156E-3,2.4414062E-3,5.3710938E-3,1.2487573E2,3.4179688E-3,1.25223145E2,7.3242188E-3,1.9296182E-2,7.2425246E-2,-1.30475955E-2,5.6152344E-3,4.7934376E-2,9.585454E-3,6.1248936E-2,1.67374E-2,6.0789626E-2,7.343594E1,7.159375E-2,1E0,5.3710938E-3,1.3114502E2,4.638672E-3,3.4179688E-3,6.1035156E-3,4.3945312E-3,4.3945312E-3,2.4414062E-3,1.0253906E-2,2.3570877E-2,1.5510065E-2,2.2E1,6.1035156E-3,-6.5594874E-2,-7.3395963E-3,-5.718219E-2,3.2392662E-4,-6.3311644E-2,-1.0057322E-2,3.499126E-2,2.0194858E-2,1.7539982E-2,-2.0070765E-2,4.7158793E-2,-4.7361966E-2,2.5978187E-2,-8.372416E-2,-4.4327073E-2,5.3869683E-2,6.3857235E-2,3.1406086E-2,4.42991E-3,-2.0047015E-2,1.8181745E-2,5.54095E-2,3.1980157E-2,-6.1727323E-2,-3.2755375E-2,1.3558052E-2,-3.286923E-3,-6.603374E-2,-2.352053E-2,5.4444768E-2,6.2273867E-2,-1.6375018E-2],"split_indices":[256,256,261,256,261,208,261,150,260,260,259,256,208,0,257,0,0,261,1,208,124,182,0,260,257,76,32,72,257,38,257,32,0,0,0,224,0,0,0,0,0,258,0,261,125,257,213,12,0,122,68,4,0,0,259,261,66,0,0,0,0,0,0,0,0,0,0,0,0,0,0,0,0,0,0,0,0,0,0,0,0,0,0,0,0,0,0,0,0],"split_type":[0,0,0,0,0,0,0,0,0,0,0,0,0,0,0,0,0,0,0,0,0,0,0,0,0,0,0,0,0,0,0,0,0,0,0,0,0,0,0,0,0,0,0,0,0,0,0,0,0,0,0,0,0,0,0,0,0,0,0,0,0,0,0,0,0,0,0,0,0,0,0,0,0,0,0,0,0,0,0,0,0,0,0,0,0,0,0,0,0],"sum_hessian":[6.798812E3,1.9155916E3,4.8832207E3,1.8149214E3,1.006702E2,3.8313484E3,1.0518723E3,1.7198867E3,9.503465E1,9.168023E1,8.989967E0,3.1744026E3,6.569458E2,9.321382E2,1.1973416E2,1.7183884E3,1.4982139E0,9.029084E1,4.743806E0,8.792212E1,3.7581089E0,7.6607327E0,1.3292348E0,6.195525E1,3.1124473E3,2.5041689E2,4.0652893E2,5.556636E2,3.764746E2,1.779941E1,1.0193475E2,8.857081E1,1.7200365E0,3.4781828E0,1.2656229E0,8.663119E1,1.2909355E0,1.0047077E0,2.753401E0,1.0189651E0,6.6417675E0,5.571488E1,6.2403693E0,2.7346477E3,3.7779944E2,2.4487178E2,5.545115E0,4.672391E0,4.0185654E2,4.625123E2,9.3151306E1,6.3656868E1,3.1281775E2,1.7740852E0,1.6025324E1,1.5299668E1,8.6635086E1,8.6917244E1,1.6535594E0,8.209695E1,4.534239E0,1.9801933E1,3.591295E1,2.2698425E3,4.6480518E2,3.380756E2,3.9723835E1,2.4368158E2,1.1901978E0,4.1969E0,1.3482151E0,1.6248236E0,3.0475676E0,3.9291327E2,8.94327E0,2.89432E2,1.7308028E2,5.7150173E1,3.600113E1,1.4453868E0,6.2211483E1,2.8532318E2,2.749456E1,1.7191352E0,1.430619E1,6.360449E0,8.939219E0,8.4557106E1,2.0779798E0],"tree_param":{"num_deleted":"0","num_feature":"262","num_nodes":"89","size_leaf_vector":"1"}},{"base_weights":[-1.1792143E-3,-1.2610772E0,4.8218974E-1,-1.2891867E0,-7.519429E-1,6.3377094E-1,-2.0511137E-1,-1.2984084E0,-1.1106611E0,-9.2106116E-1,8.867922E-1,5.618415E-1,1.178781E0,-3.642173E-1,7.033159E-1,-6.494421E-2,-2.2887668E-2,-1.2335122E0,9.960792E-1,-1.0130635E0,5.458911E-2,1.1265913E0,-1.8372871E-2,6.007685E-1,1.6438508E-1,1.1952577E0,-1.2594901E-1,1.9205103E-2,-6.793255E-1,-1.0206977E0,1.0404818E0,-1.2695913E0,1.8739177E-2,7.0537016E-2,-1.269577E-2,-1.0617418E0,3.381743E-2,5.9629798E-2,1.5897138E-2,6.301767E-1,1.8847281E-2,-2.2855583E-1,5.3882617E-1,-3.347202E-2,1.2010998E0,-1.0302432E0,8.8249296E-1,-1.2491127E0,2.1227373E-1,-1.4497468E-1,-7.919513E-1,-1.1748847E0,2.2794237E-2,2.1328712E-1,1.1245445E0,-6.449037E-2,-7.115414E-3,3.7066724E-2,-5.4639634E-2,2.7993456E-2,3.9937556E-2,-2.7965715E-2,1.2704954E-2,-1.9394899E-2,3.7429936E-2,9.324355E-3,4.4750787E-2,5.0695933E-2,6.3194476E-2,-1.1798072E-2,-6.4985506E-2,6.2325962E-2,3.4785725E-3,-1.997345E-2,-7.5221576E-2,-5.741808E-2,1.4432022E-2,1.2956497E-2,-2.7209802E-2,4.654632E-3,-4.2402122E-2,-6.273866E-2,-5.05886E-4,-2.4155935E-2,5.5197783E-2,5.892851E-2,-5.2297446E-3],"categories":[],"categories_nodes":[],"categories_segments":[],"categories_sizes":[],"default_left":[0,0,0,0,0,0,0,0,0,0,0,0,0,0,0,0,0,0,0,0,0,0,0,0,0,0,0,0,0,0,0,0,0,0,0,0,0,0,0,0,0,0,0,0,0,0,0,0,0,0,0,0,0,0,0,0,0,0,0,0,0,0,0,0,0,0,0,0,0,0,0,0,0,0,0,0,0,0,0,0,0,0,0,0,0,0,0],"id":15,"left_children":[1,3,5,7,9,11,13,15,17,19,21,23,25,27,29,-1,-1,31,33,35,-1,37,-1,39,41,43,45,47,49,51,53,55,-1,-1,-1,57,-1,-1,-1,59,61,63,65,-1,67,69,71,73,75,77,79,81,-1,83,85,-1,-1,-1,-1,-1,-1,-1,-1,-1,-1,-1,-1,-1,-1,-1,-1,-1,-1,-1,-1,-1,-1,-1,-1,-1,-1,-1,-1,-1,-1,-1,-1],"loss_changes":[4.070918E3,2.5557129E1,5.0344763E2,1.4472656E0,2.8358448E1,1.5451709E2,1.2653961E2,7.055664E-2,2.5330467E1,1.7878777E1,3.3632903E0,5.403418E1,1.0052368E1,8.99215E1,7.695394E1,0E0,0E0,5.6075897E0,3.3045578E0,7.883644E0,0E0,7.333183E-2,0E0,5.4516846E1,4.6247112E1,5.760254E0,6.972439E0,8.270433E1,2.4468994E1,5.512865E0,7.3881836E0,1.7929077E0,0E0,0E0,0E0,5.573555E0,0E0,0E0,0E0,3.550049E1,2.1130505E1,2.4216415E1,2.001575E1,0E0,4.0532227E0,5.423441E-1,1.0028806E0,9.079048E0,3.0780354E1,1.18105545E1,1.6816498E1,1.8552475E0,0E0,7.575639E0,6.720253E0,0E0,0E0,0E0,0E0,0E0,0E0,0E0,0E0,0E0,0E0,0E0,0E0,0E0,0E0,0E0,0E0,0E0,0E0,0E0,0E0,0E0,0E0,0E0,0E0,0E0,0E0,0E0,0E0,0E0,0E0,0E0,0E0],"parents":[2147483647,0,0,1,1,2,2,3,3,4,4,5,5,6,6,7,7,8,8,9,9,10,10,11,11,12,12,13,13,14,14,17,17,18,18,19,19,21,21,23,23,24,24,25,25,26,26,27,27,28,28,29,29,30,30,31,31,35,35,39,39,40,40,41,41,42,42,44,44,45,45,46,46,47,47,48,48,49,49,50,50,51,51,53,53,54,54],"right_children":[2,4,6,8,10,12,14,16,18,20,22,24,26,28,30,-1,-1,32,34,36,-1,38,-1,40,42,44,46,48,50,52,54,56,-1,-1,-1,58,-1,-1,-1,60,62,64,66,-1,68,70,72,74,76,78,80,82,-1,84,86,-1,-1,-1,-1,-1,-1,-1,-1,-1,-1,-1,-1,-1,-1,-1,-1,-1,-1,-1,-1,-1,-1,-1,-1,-1,-1,-1,-1,-1,-1,-1,-1],"split_conditions":[7.9395466E0,7.9352956E0,6.3476562E-3,7.9314356E0,2.9E1,6.1035156E-3,1.3E1,1.977539E-2,4.4625E2,8.300781E-3,5.355989E-2,3E0,3E0,7E0,1.2415796E2,-6.494421E-2,-2.2887668E-2,3.2E1,4.8828125E-3,7.080078E-3,5.458911E-2,4.8828125E-3,-1.8372871E-2,1.2965112E2,4E0,1.953125E-3,4.1503906E-3,1.2487573E2,3.4179688E-3,4.638672E-3,1.2487573E2,7.3242188E-3,1.8739177E-2,7.0537016E-2,-1.269577E-2,1.953125E-3,3.381743E-2,5.9629798E-2,1.5897138E-2,4.638672E-3,3.1738281E-3,5.6152344E-3,4.3945312E-3,-3.347202E-2,6.591797E-3,4.1503906E-3,4.1503906E-3,2.75875E2,7.9430714E0,4.1503906E-3,2.6855469E-3,4.8828125E-3,2.2794237E-2,2.3E1,6.1035156E-3,-6.449037E-2,-7.115414E-3,3.7066724E-2,-5.4639634E-2,2.7993456E-2,3.9937556E-2,-2.7965715E-2,1.2704954E-2,-1.9394899E-2,3.7429936E-2,9.324355E-3,4.4750787E-2,5.0695933E-2,6.3194476E-2,-1.1798072E-2,-6.4985506E-2,6.2325962E-2,3.4785725E-3,-1.997345E-2,-7.5221576E-2,-5.741808E-2,1.4432022E-2,1.2956497E-2,-2.7209802E-2,4.654632E-3,-4.2402122E-2,-6.273866E-2,-5.05886E-4,-2.4155935E-2,5.5197783E-2,5.892851E-2,-5.2297446E-3],"split_indices":[256,256,0,256,261,208,261,150,260,32,259,261,261,261,257,0,0,261,1,208,0,167,0,257,261,209,73,257,4,243,257,32,0,0,0,148,0,0,0,32,0,72,72,0,208,195,132,260,256,90,229,254,0,261,64,0,0,0,0,0,0,0,0,0,0,0,0,0,0,0,0,0,0,0,0,0,0,0,0,0,0,0,0,0,0,0,0],"split_type":[0,0,0,0,0,0,0,0,0,0,0,0,0,0,0,0,0,0,0,0,0,0,0,0,0,0,0,0,0,0,0,0,0,0,0,0,0,0,0,0,0,0,0,0,0,0,0,0,0,0,0,0,0,0,0,0,0,0,0,0,0,0,0,0,0,0,0,0,0,0,0,0,0,0,0,0,0,0,0,0,0,0,0,0,0,0,0],"sum_hessian":[6.6826445E3,1.8525018E3,4.8301426E3,1.7541237E3,9.8378136E1,3.9574275E3,8.7271515E2,1.6620001E3,9.21236E1,8.957219E1,8.80595E0,3.4978223E3,4.596053E2,7.431548E2,1.2956033E2,1.6605154E3,1.4847637E0,8.7439224E1,4.684377E0,8.6131996E1,3.4401915E0,7.478014E0,1.3279362E0,3.185338E3,3.1248438E2,4.5395648E2,5.6488314E0,3.3566183E2,4.0749295E2,2.086174E1,1.0869859E2,8.57267E1,1.7125214E0,3.420948E0,1.2634293E0,8.408085E1,2.0511508E0,6.474725E0,1.0032892E0,3.0320269E3,1.5331097E2,1.5266565E2,1.5981873E2,1.0630467E0,4.5289343E2,2.9668062E0,2.682025E0,4.362277E1,2.9203906E2,7.13346E1,3.3615836E2,1.9074297E1,1.7874441E0,1.0353659E1,9.834493E1,8.4074776E1,1.6519232E0,1.0361881E0,8.3044655E1,2.1426914E3,8.893356E2,4.3941517E1,1.0936945E2,1.317797E2,2.0885952E1,8.110955E1,7.8709175E1,1.1806867E2,3.3482474E2,1.2266853E0,1.7401209E0,1.4840744E0,1.1979506E0,1.0672307E1,3.2950462E1,1.4773863E1,2.772652E2,3.5624874E1,3.570973E1,1.999553E1,3.1616284E2,1.7777695E1,1.2966022E0,6.0672817E0,4.286376E0,9.424369E1,4.101246E0],"tree_param":{"num_deleted":"0","num_feature":"262","num_nodes":"87","size_leaf_vector":"1"}},{"base_weights":[-1.2976247E-3,-1.2410842E0,4.6345863E-1,-1.2695824E0,-7.306593E-1,6.093531E-1,-1.9703878E-1,-1.2788858E0,-1.0899616E0,-8.9601904E-1,8.6510783E-1,5.388134E-1,1.1552274E0,-3.4904248E-1,6.850808E-1,-6.3968554E-2,-2.2326725E-2,-1.2123588E0,9.673131E-1,-9.9011356E-1,1.0204217E0,-9.452898E-3,5.8322426E-2,6.051094E-1,3.123088E-1,1.1718471E0,-1.21285096E-1,1.7844366E-2,-6.5267074E-1,-7.561012E-1,1.0693715E0,-1.2487335E0,1.8199075E-2,6.875694E-2,-1.2353691E-2,-1.0387529E0,3.2684326E-2,6.0144186E-2,1.1628472E-2,6.392684E-1,-3.7152085E-2,5.4754406E-2,6.183039E-1,-3.242099E-2,1.1777644E0,-9.980101E-1,8.5599524E-1,-1.2034446E0,2.0201294E-1,-3.4858186E-2,-7.465521E-1,-9.5592684E-1,7.902117E-1,1.1198972E0,-1.0036829E-1,-6.346721E-2,-6.898089E-3,-5.503924E-2,2.160369E-3,2.8457735E-2,4.037958E-2,-2.7373493E-2,9.984936E-3,-8.378254E-3,1.1503034E-2,1.921508E-2,4.5563586E-2,4.9323957E-2,6.2133867E-2,-1.1472626E-2,-6.291714E-2,6.042527E-2,3.384671E-3,-1.9089853E-2,-7.269096E-2,-5.5267733E-2,1.3742166E-2,-2.369165E-2,2.2595132E-2,-2.0290177E-2,-4.4652607E-2,2.6486604E-2,-5.4956883E-2,4.87823E-2,8.829007E-3,5.5727427E-4,5.8370676E-2,-5.1541407E-2,3.7556894E-2],"categories":[],"categories_nodes":[],"categories_segments":[],"categories_sizes":[],"default_left":[0,0,0,0,0,0,0,0,0,0,0,0,0,0,0,0,0,0,0,0,0,0,0,0,0,0,0,0,0,0,0,0,0,0,0,0,0,0,0,0,0,0,0,0,0,0,0,0,0,0,0,0,0,0,0,0,0,0,0,0,0,0,0,0,0,0,0,0,0,0,0,0,0,0,0,0,0,0,0,0,0,0,0,0,0,0,0,0,0],"id":16,"left_children":[1,3,5,7,9,11,13,15,17,19,21,23,25,27,29,-1,-1,31,33,35,37,-1,-1,39,41,43,45,47,49,51,53,55,-1,-1,-1,57,-1,-1,-1,59,61,63,65,-1,67,69,71,73,75,77,79,81,83,85,87,-1,-1,-1,-1,-1,-1,-1,-1,-1,-1,-1,-1,-1,-1,-1,-1,-1,-1,-1,-1,-1,-1,-1,-1,-1,-1,-1,-1,-1,-1,-1,-1,-1,-1],"loss_changes":[3.7843804E3,2.5121338E1,4.6045264E2,1.4379883E0,2.6384712E1,1.5005212E2,1.1622781E2,7.69043E-2,2.38917E1,1.6956657E1,3.2768784E0,5.187445E1,9.623596E0,8.2283875E1,7.141525E1,0E0,0E0,5.362816E0,3.1244383E0,7.4589996E0,3.8597488E-1,0E0,0E0,5.8842896E1,6.19972E1,5.5166016E0,6.5521326E0,7.568434E1,2.3414505E1,9.229179E0,6.085449E0,1.7456207E0,0E0,0E0,0E0,5.6012955E0,0E0,0E0,0E0,2.9583984E1,1.6588148E1,1.6737785E1,2.4303665E1,0E0,4.239929E0,5.05008E-1,9.416423E-1,8.516167E0,2.813677E1,1.1829553E1,1.7148392E1,5.845585E0,2.4712181E-1,5.0952454E0,4.8168383E0,0E0,0E0,0E0,0E0,0E0,0E0,0E0,0E0,0E0,0E0,0E0,0E0,0E0,0E0,0E0,0E0,0E0,0E0,0E0,0E0,0E0,0E0,0E0,0E0,0E0,0E0,0E0,0E0,0E0,0E0,0E0,0E0,0E0,0E0],"parents":[2147483647,0,0,1,1,2,2,3,3,4,4,5,5,6,6,7,7,8,8,9,9,10,10,11,11,12,12,13,13,14,14,17,17,18,18,19,19,20,20,23,23,24,24,25,25,26,26,27,27,28,28,29,29,30,30,31,31,35,35,39,39,40,40,41,41,42,42,44,44,45,45,46,46,47,47,48,48,49,49,50,50,51,51,52,52,53,53,54,54],"right_children":[2,4,6,8,10,12,14,16,18,20,22,24,26,28,30,-1,-1,32,34,36,38,-1,-1,40,42,44,46,48,50,52,54,56,-1,-1,-1,58,-1,-1,-1,60,62,64,66,-1,68,70,72,74,76,78,80,82,84,86,88,-1,-1,-1,-1,-1,-1,-1,-1,-1,-1,-1,-1,-1,-1,-1,-1,-1,-1,-1,-1,-1,-1,-1,-1,-1,-1,-1,-1,-1,-1,-1,-1,-1,-1],"split_conditions":[7.9395466E0,7.9352956E0,6.3476562E-3,7.9314356E0,2.9E1,6.1035156E-3,1.3E1,1.977539E-2,4.4625E2,4.12125E2,1.24352295E2,1E0,3E0,7E0,1.2463721E2,-6.3968554E-2,-2.2326725E-2,3.2E1,4.8828125E-3,7.080078E-3,4.3945312E-3,-9.452898E-3,5.8322426E-2,1.2965112E2,4.3945312E-3,1.953125E-3,4.1503906E-3,1.2487573E2,3.1738281E-3,2.9E1,6.1035156E-3,7.3242188E-3,1.8199075E-2,6.875694E-2,-1.2353691E-2,5.6152344E-3,3.2684326E-2,6.0144186E-2,1.1628472E-2,4.638672E-3,3.1738281E-3,3.90625E-3,4.3945312E-3,-3.242099E-2,6.591797E-3,4.1503906E-3,4.1503906E-3,2.75875E2,7.9430714E0,3.90625E-3,3.90625E-3,3.1738281E-3,4.1503906E-3,2.4414062E-3,1.26276855E2,-6.346721E-2,-6.898089E-3,-5.503924E-2,2.160369E-3,2.8457735E-2,4.037958E-2,-2.7373493E-2,9.984936E-3,-8.378254E-3,1.1503034E-2,1.921508E-2,4.5563586E-2,4.9323957E-2,6.2133867E-2,-1.1472626E-2,-6.291714E-2,6.042527E-2,3.384671E-3,-1.9089853E-2,-7.269096E-2,-5.5267733E-2,1.3742166E-2,-2.369165E-2,2.2595132E-2,-2.0290177E-2,-4.4652607E-2,2.6486604E-2,-5.4956883E-2,4.87823E-2,8.829007E-3,5.5727427E-4,5.8370676E-2,-5.1541407E-2,3.7556894E-2],"split_indices":[256,256,0,256,261,208,261,150,260,260,257,261,261,261,257,0,0,261,1,208,73,0,0,257,72,209,73,257,90,261,64,32,0,0,0,224,0,0,0,32,0,139,139,0,208,195,132,260,256,153,2,38,16,246,257,0,0,0,0,0,0,0,0,0,0,0,0,0,0,0,0,0,0,0,0,0,0,0,0,0,0,0,0,0,0,0,0,0,0],"split_type":[0,0,0,0,0,0,0,0,0,0,0,0,0,0,0,0,0,0,0,0,0,0,0,0,0,0,0,0,0,0,0,0,0,0,0,0,0,0,0,0,0,0,0,0,0,0,0,0,0,0,0,0,0,0,0,0,0,0,0,0,0,0,0,0,0,0,0,0,0,0,0,0,0,0,0,0,0,0,0,0,0,0,0,0,0,0,0,0,0],"sum_hessian":[6.5658423E3,1.7897701E3,4.7760723E3,1.6937185E3,9.6051605E1,3.9120361E3,8.6403577E2,1.6044939E3,8.922455E1,8.743024E1,8.6213665E0,3.4661199E3,4.4591635E2,7.375484E2,1.2648739E2,1.6030226E3,1.4714295E0,8.4601875E1,4.6226788E0,8.379917E1,3.6310618E0,1.9994378E0,6.6219287E0,2.6800276E3,7.8609235E2,4.4026624E2,5.6500936E0,3.3440903E2,4.0313934E2,2.6423904E1,1.00063484E2,8.289683E1,1.7050476E0,3.361439E0,1.2612398E0,8.174835E1,2.0508218E0,